%YAML:1.0
---
opencv_ml_svm:
   format: 3
   svmType: C_SVC
   kernel:
      type: LINEAR
   C: 1.0000000000000001e-01
   term_criteria: { epsilon:1.1920928955078125e-07, iterations:1000 }
   var_count: 64
   class_count: 10
   class_labels: !!opencv-matrix
      rows: 10
      cols: 1
      dt: i
      data: [ 0, 1, 2, 3, 4, 5, 6, 7, 8, 9 ]
   sv_total: 45
   support_vectors:
      - [ -4.58752547e-05, 1.71317754e-03, -9.87475272e-04,
          -6.82759637e-05, -1.33661903e-04, 1.85090801e-04,
          6.85512859e-05, 1.01817492e-03, 1.39777607e-04,
          -9.13127617e-04, -1.98388909e-04, -2.28316826e-03,
          -3.02262692e-04, -5.03788542e-05, -3.96991556e-04,
          -6.93335824e-05, 0., 0., 0., 0., 0., 0., 0., 0., 0., 0., 0.,
          0., 0., 0., 0., 0., 0., 0., 0., 0., 0., 0., 0., 0., 0., 0., 0.,
          0., 0., 0., 0., 0., 0., 0., 0., 0., 0., 0., 0., 0., 0., 0., 0.,
          0., 0., 0., 0., 0. ]
      - [ 2.14430736e-04, 3.47953266e-03, 3.95215873e-04,
          -4.37043986e-04, 6.14181452e-04, -1.81993782e-05,
          -1.95572757e-05, -5.08904748e-04, -3.48489732e-04,
          -4.07928455e-05, -6.63674145e-05, 2.33040264e-04,
          1.98424488e-04, -2.00800190e-04, -1.29548236e-04,
          -5.92498036e-05, 0., 0., 0., 0., 0., 0., 0., 0., 0., 0., 0.,
          0., 0., 0., 0., 0., 0., 0., 0., 0., 0., 0., 0., 0., 0., 0., 0.,
          0., 0., 0., 0., 0., 0., 0., 0., 0., 0., 0., 0., 0., 0., 0., 0.,
          0., 0., 0., 0., 0. ]
      - [ -4.54909110e-04, 1.02901529e-03, -1.89805520e-04,
          3.55427837e-05, 2.84520975e-05, 0., -1.34978582e-05,
          7.99481117e-04, 5.03545562e-05, -4.49763465e-04,
          -2.78172985e-04, -7.17583171e-04, -2.68124335e-04,
          -8.30183035e-06, -1.39624346e-04, 3.58623947e-05, 0., 0., 0.,
          0., 0., 0., 0., 0., 0., 0., 0., 0., 0., 0., 0., 0., 0., 0., 0.,
          0., 0., 0., 0., 0., 0., 0., 0., 0., 0., 0., 0., 0., 0., 0., 0.,
          0., 0., 0., 0., 0., 0., 0., 0., 0., 0., 0., 0., 0. ]
      - [ -4.54227265e-04, 1.46373035e-03, 3.50317830e-04,
          -2.55219784e-04, 7.52558990e-04, -6.47211391e-06,
          -5.18151392e-05, -4.05588740e-04, -1.72389391e-05,
          -3.27727146e-04, -3.57087672e-04, -4.68599610e-04,
          -4.56082198e-04, -1.91301689e-04, -1.43887242e-03,
          -6.85003979e-05, 0., 0., 0., 0., 0., 0., 0., 0., 0., 0., 0.,
          0., 0., 0., 0., 0., 0., 0., 0., 0., 0., 0., 0., 0., 0., 0., 0.,
          0., 0., 0., 0., 0., 0., 0., 0., 0., 0., 0., 0., 0., 0., 0., 0.,
          0., 0., 0., 0., 0. ]
      - [ -1.21235091e-03, 2.27937009e-03, 1.79079350e-03,
          -1.19054457e-04, 1.59816770e-03, 1.28028050e-05,
          5.68205996e-06, 1.17008880e-04, -1.69598352e-05,
          -7.77003297e-04, -1.29399472e-03, -1.16838492e-03,
          -8.67149211e-04, -3.51123344e-05, -8.78543651e-05,
          -3.69980524e-04, 0., 0., 0., 0., 0., 0., 0., 0., 0., 0., 0.,
          0., 0., 0., 0., 0., 0., 0., 0., 0., 0., 0., 0., 0., 0., 0., 0.,
          0., 0., 0., 0., 0., 0., 0., 0., 0., 0., 0., 0., 0., 0., 0., 0.,
          0., 0., 0., 0., 0. ]
      - [ -3.76646349e-04, -1.27237674e-03, -1.69664097e-04,
          2.02426803e-04, 2.75066285e-03, 1.88599294e-03, 4.23008547e-04,
          4.18967055e-03, 5.32128289e-03, 2.07825811e-04, 3.92990012e-04,
          -4.89230697e-05, 3.74709070e-03, 0., -6.50558577e-05,
          -5.73923753e-04, 0., 0., 0., 0., 0., 0., 0., 0., 0., 0., 0.,
          0., 0., 0., 0., 0., 0., 0., 0., 0., 0., 0., 0., 0., 0., 0., 0.,
          0., 0., 0., 0., 0., 0., 0., 0., 0., 0., 0., 0., 0., 0., 0., 0.,
          0., 0., 0., 0., 0. ]
      - [ 4.81219613e-04, 2.43193260e-03, 1.66128436e-03,
          -5.31388447e-04, 1.37259092e-04, 4.36919509e-05,
          -1.99160757e-04, -1.44551042e-04, -2.40150068e-04,
          -7.34022760e-04, -3.83039704e-04, -1.00058573e-03,
          -1.35642604e-05, 0., 0., -1.72797209e-05, 0., 0., 0., 0., 0.,
          0., 0., 0., 0., 0., 0., 0., 0., 0., 0., 0., 0., 0., 0., 0., 0.,
          0., 0., 0., 0., 0., 0., 0., 0., 0., 0., 0., 0., 0., 0., 0., 0.,
          0., 0., 0., 0., 0., 0., 0., 0., 0., 0., 0. ]
      - [ 2.04582652e-03, 1.53482584e-02, 3.35748494e-03,
          -4.71265987e-03, 4.60183341e-03, -2.94037818e-05,
          -9.09404916e-05, -1.78211869e-03, -7.23141013e-03,
          -1.92581618e-03, 3.33482982e-03, -3.31710617e-04,
          2.12599430e-03, -2.69872020e-04, -1.39265170e-03, 0., 0., 0.,
          0., 0., 0., 0., 0., 0., 0., 0., 0., 0., 0., 0., 0., 0., 0., 0.,
          0., 0., 0., 0., 0., 0., 0., 0., 0., 0., 0., 0., 0., 0., 0., 0.,
          0., 0., 0., 0., 0., 0., 0., 0., 0., 0., 0., 0., 0., 0. ]
      - [ -1.08628534e-03, 3.80664854e-03, 1.53334404e-03,
          -1.69986428e-03, 2.55640037e-03, 6.59358222e-04,
          -4.98514215e-04, -1.88045524e-04, -5.51979756e-04,
          6.19352679e-04, 7.58233538e-04, -4.67265723e-04,
          -3.42455460e-05, -8.91004747e-04, -1.37542811e-04,
          -1.94093364e-03, 0., 0., 0., 0., 0., 0., 0., 0., 0., 0., 0.,
          0., 0., 0., 0., 0., 0., 0., 0., 0., 0., 0., 0., 0., 0., 0., 0.,
          0., 0., 0., 0., 0., 0., 0., 0., 0., 0., 0., 0., 0., 0., 0., 0.,
          0., 0., 0., 0., 0. ]
      - [ 2.94813683e-04, 1.63976292e-04, 1.13229078e-04,
          -9.08841321e-05, 1.58089497e-05, 1.73803070e-04,
          -3.22835986e-04, -2.19809706e-04, 2.12426661e-04,
          2.55329738e-04, 1.52124790e-04, -1.11747511e-04,
          -1.48646668e-05, 7.41854747e-05, 1.18675598e-05,
          1.05877461e-05, 0., 0., 0., 0., 0., 0., 0., 0., 0., 0., 0., 0.,
          0., 0., 0., 0., 0., 0., 0., 0., 0., 0., 0., 0., 0., 0., 0., 0.,
          0., 0., 0., 0., 0., 0., 0., 0., 0., 0., 0., 0., 0., 0., 0., 0.,
          0., 0., 0., 0. ]
      - [ -1.06427178e-04, -4.99233196e-04, -8.98572907e-04,
          -3.40811996e-04, -3.19123326e-04, -2.96759274e-04,
          -1.99601345e-04, -1.08745007e-04, -5.08312776e-04,
          4.73397638e-04, 5.97870210e-04, 3.29570612e-04, 2.64078000e-04,
          4.30829532e-04, -1.60383934e-04, -9.09007067e-05, 0., 0., 0.,
          0., 0., 0., 0., 0., 0., 0., 0., 0., 0., 0., 0., 0., 0., 0., 0.,
          0., 0., 0., 0., 0., 0., 0., 0., 0., 0., 0., 0., 0., 0., 0., 0.,
          0., 0., 0., 0., 0., 0., 0., 0., 0., 0., 0., 0., 0. ]
      - [ -3.72757786e-04, -3.81001155e-05, -4.32284462e-04,
          -2.06575060e-04, -4.22340090e-05, -1.72637971e-04,
          3.63629006e-05, -2.50841957e-04, 2.12049024e-04,
          4.22238190e-05, 1.68185215e-04, 3.02130094e-04, 3.62453604e-04,
          1.70959116e-04, -1.49184011e-03, -4.52300992e-05, 0., 0., 0.,
          0., 0., 0., 0., 0., 0., 0., 0., 0., 0., 0., 0., 0., 0., 0., 0.,
          0., 0., 0., 0., 0., 0., 0., 0., 0., 0., 0., 0., 0., 0., 0., 0.,
          0., 0., 0., 0., 0., 0., 0., 0., 0., 0., 0., 0., 0. ]
      - [ -3.53540119e-04, -5.13644249e-04, 6.16128309e-05,
          -3.99568944e-06, 8.36611653e-05, 1.14401366e-04,
          -1.78868126e-04, 3.91307040e-05, -4.07288666e-04,
          -1.36829636e-04, 8.29293058e-05, 3.28085764e-04,
          2.33064668e-04, 2.31911152e-04, -1.38691044e-03,
          1.80612606e-05, 0., 0., 0., 0., 0., 0., 0., 0., 0., 0., 0., 0.,
          0., 0., 0., 0., 0., 0., 0., 0., 0., 0., 0., 0., 0., 0., 0., 0.,
          0., 0., 0., 0., 0., 0., 0., 0., 0., 0., 0., 0., 0., 0., 0., 0.,
          0., 0., 0., 0. ]
      - [ -7.17711053e-04, -8.07748816e-04, 3.69791029e-04,
          2.51086924e-04, 8.92830372e-04, 4.49505344e-04, 3.53970798e-04,
          -1.02615522e-04, -1.09793757e-04, 1.06229971e-03,
          1.14869466e-03, 8.66535993e-04, 1.04266242e-03, 1.33158162e-03,
          -1.43814646e-03, -1.20426132e-03, 0., 0., 0., 0., 0., 0., 0.,
          0., 0., 0., 0., 0., 0., 0., 0., 0., 0., 0., 0., 0., 0., 0., 0.,
          0., 0., 0., 0., 0., 0., 0., 0., 0., 0., 0., 0., 0., 0., 0., 0.,
          0., 0., 0., 0., 0., 0., 0., 0., 0. ]
      - [ -7.77320383e-05, -3.41528590e-04, 7.54175198e-05,
          -1.62059980e-04, -3.70782334e-04, -3.05191090e-04,
          -8.52145196e-04, -7.09701781e-05, -3.16220860e-04,
          -2.84630223e-04, -1.65104095e-04, 2.12105690e-04,
          8.59227002e-05, -4.38246643e-05, -3.93615861e-04,
          -3.14855162e-04, 0., 0., 0., 0., 0., 0., 0., 0., 0., 0., 0.,
          0., 0., 0., 0., 0., 0., 0., 0., 0., 0., 0., 0., 0., 0., 0., 0.,
          0., 0., 0., 0., 0., 0., 0., 0., 0., 0., 0., 0., 0., 0., 0., 0.,
          0., 0., 0., 0., 0. ]
      - [ 4.50892956e-04, 2.39696074e-05, -2.16683155e-04,
          -3.58542638e-05, -3.22526612e-05, -4.28359344e-04,
          -2.46725540e-04, -1.69761755e-04, 3.19526676e-04,
          -2.08201236e-04, -1.37435505e-04, 1.63174627e-05,
          3.83405168e-05, 1.63436314e-04, -5.10672817e-06,
          -2.26636883e-04, 0., 0., 0., 0., 0., 0., 0., 0., 0., 0., 0.,
          0., 0., 0., 0., 0., 0., 0., 0., 0., 0., 0., 0., 0., 0., 0., 0.,
          0., 0., 0., 0., 0., 0., 0., 0., 0., 0., 0., 0., 0., 0., 0., 0.,
          0., 0., 0., 0., 0. ]
      - [ 3.39092920e-04, -4.96264955e-04, 4.00699908e-04,
          -7.65388759e-05, -4.03755294e-05, -1.44671838e-04,
          -1.86285572e-04, 2.75019174e-05, -3.92874092e-04,
          9.62721533e-05, 2.10752827e-04, 5.81056345e-04, 7.08053529e-04,
          -1.04401796e-03, -3.47161258e-04, -3.97917902e-04, 0., 0., 0.,
          0., 0., 0., 0., 0., 0., 0., 0., 0., 0., 0., 0., 0., 0., 0., 0.,
          0., 0., 0., 0., 0., 0., 0., 0., 0., 0., 0., 0., 0., 0., 0., 0.,
          0., 0., 0., 0., 0., 0., 0., 0., 0., 0., 0., 0., 0. ]
      - [ -4.02148522e-04, -5.71111974e-04, -8.04362644e-04,
          -3.24286695e-04, -4.80861811e-04, -2.48581608e-04,
          -2.12160172e-04, -4.91948973e-04, -7.30448010e-05,
          2.36663880e-04, 4.42812656e-04, 4.79978131e-04, 4.44403297e-04,
          5.59433538e-05, 4.85225173e-05, -1.13364564e-04, 0., 0., 0.,
          0., 0., 0., 0., 0., 0., 0., 0., 0., 0., 0., 0., 0., 0., 0., 0.,
          0., 0., 0., 0., 0., 0., 0., 0., 0., 0., 0., 0., 0., 0., 0., 0.,
          0., 0., 0., 0., 0., 0., 0., 0., 0., 0., 0., 0., 0. ]
      - [ -8.92355965e-05, -1.33744034e-04, -2.56910338e-04,
          -6.59270590e-05, -2.03636941e-04, -3.53168871e-04,
          -1.00644618e-04, -1.33155219e-04, -3.55587254e-04,
          -2.91652050e-05, -1.43748548e-06, 2.06426455e-04,
          2.55810213e-04, -1.85545738e-04, -8.36622785e-04,
          -2.95077025e-05, 0., 0., 0., 0., 0., 0., 0., 0., 0., 0., 0.,
          0., 0., 0., 0., 0., 0., 0., 0., 0., 0., 0., 0., 0., 0., 0., 0.,
          0., 0., 0., 0., 0., 0., 0., 0., 0., 0., 0., 0., 0., 0., 0., 0.,
          0., 0., 0., 0., 0. ]
      - [ -2.40222129e-04, -4.58765193e-04, -4.63969511e-04,
          6.47672627e-04, 8.00802314e-04, 2.52293423e-04,
          -6.06011949e-04, -2.69695942e-04, 1.58306313e-04,
          -1.62958298e-04, 2.42794136e-04, 3.90392990e-04,
          5.18038345e-04, 2.50884041e-04, -8.26113508e-04,
          5.00866809e-05, 0., 0., 0., 0., 0., 0., 0., 0., 0., 0., 0., 0.,
          0., 0., 0., 0., 0., 0., 0., 0., 0., 0., 0., 0., 0., 0., 0., 0.,
          0., 0., 0., 0., 0., 0., 0., 0., 0., 0., 0., 0., 0., 0., 0., 0.,
          0., 0., 0., 0. ]
      - [ -6.07192167e-04, -9.19829297e-04, 5.77127867e-05,
          8.41725923e-05, 7.13220856e-04, 0., 2.03764957e-05,
          -4.13555128e-04, 9.98527867e-06, 9.48503221e-05,
          3.89338558e-04, 8.33604136e-04, 1.01087452e-03, 9.22888343e-04,
          -3.96929419e-04, -8.17796157e-04, 0., 0., 0., 0., 0., 0., 0.,
          0., 0., 0., 0., 0., 0., 0., 0., 0., 0., 0., 0., 0., 0., 0., 0.,
          0., 0., 0., 0., 0., 0., 0., 0., 0., 0., 0., 0., 0., 0., 0., 0.,
          0., 0., 0., 0., 0., 0., 0., 0., 0. ]
      - [ -2.00138660e-04, -2.82429246e-04, -1.68547358e-05,
          -1.63414647e-04, -2.25539072e-04, -2.45826988e-04,
          -6.29561255e-04, -1.66115467e-04, 2.17095730e-04,
          -1.80919291e-04, -7.38774979e-05, 2.75080034e-04,
          3.65435000e-04, 2.66169154e-05, -2.00357623e-04,
          -1.60075666e-04, 0., 0., 0., 0., 0., 0., 0., 0., 0., 0., 0.,
          0., 0., 0., 0., 0., 0., 0., 0., 0., 0., 0., 0., 0., 0., 0., 0.,
          0., 0., 0., 0., 0., 0., 0., 0., 0., 0., 0., 0., 0., 0., 0., 0.,
          0., 0., 0., 0., 0. ]
      - [ -3.15767305e-04, -7.81831855e-04, -7.98635243e-04,
          -1.81890719e-05, -1.77082795e-04, -9.45210631e-04,
          -6.13655720e-04, -1.21060275e-05, 3.65761371e-04,
          -5.78429725e-04, -4.16899886e-04, -1.26153405e-04,
          -1.60569584e-06, -9.37244295e-07, -4.83656959e-06,
          -2.26636883e-04, 0., 0., 0., 0., 0., 0., 0., 0., 0., 0., 0.,
          0., 0., 0., 0., 0., 0., 0., 0., 0., 0., 0., 0., 0., 0., 0., 0.,
          0., 0., 0., 0., 0., 0., 0., 0., 0., 0., 0., 0., 0., 0., 0., 0.,
          0., 0., 0., 0., 0. ]
      - [ 5.33198297e-04, -2.39819608e-04, 5.90149648e-05,
          1.77242604e-04, 1.23535946e-03, -9.46340078e-05,
          -3.61376791e-04, -4.13472677e-04, -4.59054601e-04,
          -6.13005192e-04, -5.27809432e-04, 7.65997742e-04,
          7.92270643e-04, -6.65663974e-04, -6.09891838e-04,
          -4.98035632e-04, 0., 0., 0., 0., 0., 0., 0., 0., 0., 0., 0.,
          0., 0., 0., 0., 0., 0., 0., 0., 0., 0., 0., 0., 0., 0., 0., 0.,
          0., 0., 0., 0., 0., 0., 0., 0., 0., 0., 0., 0., 0., 0., 0., 0.,
          0., 0., 0., 0., 0. ]
      - [ -3.76714670e-05, 1.89977582e-04, 1.68077691e-04,
          6.48432251e-05, 3.11424432e-04, 1.00947495e-04, 3.09360485e-06,
          2.84646434e-04, -1.81157557e-05, -5.09961683e-04,
          -7.03961588e-04, -3.97839060e-04, -3.70005058e-04,
          -1.75035544e-04, -1.50720647e-03, -8.55838589e-05, 0., 0., 0.,
          0., 0., 0., 0., 0., 0., 0., 0., 0., 0., 0., 0., 0., 0., 0., 0.,
          0., 0., 0., 0., 0., 0., 0., 0., 0., 0., 0., 0., 0., 0., 0., 0.,
          0., 0., 0., 0., 0., 0., 0., 0., 0., 0., 0., 0., 0. ]
      - [ 3.89328634e-04, 4.63841134e-04, 1.09518052e-03,
          -1.48676036e-05, 1.60448626e-03, 7.21745891e-04,
          -6.81844656e-04, 2.32521488e-04, -1.43155485e-04,
          -7.25630089e-04, -5.06225275e-04, 1.76922258e-04,
          -9.55986343e-06, 2.54408107e-04, -1.67982478e-04,
          1.24731872e-04, 0., 0., 0., 0., 0., 0., 0., 0., 0., 0., 0., 0.,
          0., 0., 0., 0., 0., 0., 0., 0., 0., 0., 0., 0., 0., 0., 0., 0.,
          0., 0., 0., 0., 0., 0., 0., 0., 0., 0., 0., 0., 0., 0., 0., 0.,
          0., 0., 0., 0. ]
      - [ -6.64394756e-05, -8.17792024e-05, 1.17514843e-04, 0.,
          3.63105995e-04, 3.22192209e-05, 1.90029623e-05, 3.54225995e-05,
          3.57074721e-04, -6.46605040e-04, -6.62186416e-04,
          -7.86453747e-05, -6.46019689e-05, 0., -2.38312168e-05,
          -3.38606842e-05, 0., 0., 0., 0., 0., 0., 0., 0., 0., 0., 0.,
          0., 0., 0., 0., 0., 0., 0., 0., 0., 0., 0., 0., 0., 0., 0., 0.,
          0., 0., 0., 0., 0., 0., 0., 0., 0., 0., 0., 0., 0., 0., 0., 0.,
          0., 0., 0., 0., 0. ]
      - [ 8.25962998e-05, 4.03778075e-04, 7.27268867e-04, 2.83981353e-04,
          1.37104274e-04, 1.95015400e-05, -3.27195041e-04,
          -2.99581588e-05, 4.16281051e-04, -1.15085230e-03,
          -1.18596375e-03, 1.44931022e-04, 3.14771023e-05,
          -3.22704727e-04, 1.73936001e-04, -2.91369593e-04, 0., 0., 0.,
          0., 0., 0., 0., 0., 0., 0., 0., 0., 0., 0., 0., 0., 0., 0., 0.,
          0., 0., 0., 0., 0., 0., 0., 0., 0., 0., 0., 0., 0., 0., 0., 0.,
          0., 0., 0., 0., 0., 0., 0., 0., 0., 0., 0., 0., 0. ]
      - [ -7.95940869e-05, 6.00514795e-05, 2.70742050e-04,
          4.00192424e-04, 2.10468221e-04, -2.74095917e-04,
          -2.89302134e-05, 1.97203597e-04, 4.56670270e-04,
          -7.17505172e-04, -6.15356839e-04, -3.50218179e-04,
          -5.92228258e-04, -2.64762493e-04, 6.07143556e-05,
          -1.17342512e-04, 0., 0., 0., 0., 0., 0., 0., 0., 0., 0., 0.,
          0., 0., 0., 0., 0., 0., 0., 0., 0., 0., 0., 0., 0., 0., 0., 0.,
          0., 0., 0., 0., 0., 0., 0., 0., 0., 0., 0., 0., 0., 0., 0., 0.,
          0., 0., 0., 0., 0. ]
      - [ 5.23217954e-04, -1.58300943e-04, 2.37682485e-04,
          -6.50722868e-05, 5.46813710e-04, -1.02014146e-05,
          -8.00045789e-04, 3.11469666e-05, 3.33928881e-04,
          -9.71962290e-04, -1.02266413e-03, 4.98156878e-04,
          5.46725001e-04, -1.12922851e-03, -4.89635895e-05,
          5.15063584e-05, 0., 0., 0., 0., 0., 0., 0., 0., 0., 0., 0., 0.,
          0., 0., 0., 0., 0., 0., 0., 0., 0., 0., 0., 0., 0., 0., 0., 0.,
          0., 0., 0., 0., 0., 0., 0., 0., 0., 0., 0., 0., 0., 0., 0., 0.,
          0., 0., 0., 0. ]
      - [ 4.22476623e-05, -1.11123751e-04, 1.16972005e-04,
          -1.56918104e-04, 8.84872745e-04, 2.25093376e-04,
          3.98791562e-05, 2.00763025e-04, -1.24805316e-04,
          -1.30876360e-04, -1.12534239e-04, -4.39352676e-04,
          -4.87539714e-04, 7.12076842e-04, -1.01086311e-03,
          -4.38783536e-06, 0., 0., 0., 0., 0., 0., 0., 0., 0., 0., 0.,
          0., 0., 0., 0., 0., 0., 0., 0., 0., 0., 0., 0., 0., 0., 0., 0.,
          0., 0., 0., 0., 0., 0., 0., 0., 0., 0., 0., 0., 0., 0., 0., 0.,
          0., 0., 0., 0., 0. ]
      - [ -2.76496605e-04, -4.06165636e-04, 7.72690837e-05,
          9.38322955e-06, 7.17967167e-04, 0., -3.89388561e-07,
          -2.29815741e-05, 1.74194371e-04, 1.26944869e-04,
          4.40465403e-04, 1.69820601e-06, 3.39883445e-05, 1.57507486e-03,
          -5.72389108e-04, -6.69526577e-04, 0., 0., 0., 0., 0., 0., 0.,
          0., 0., 0., 0., 0., 0., 0., 0., 0., 0., 0., 0., 0., 0., 0., 0.,
          0., 0., 0., 0., 0., 0., 0., 0., 0., 0., 0., 0., 0., 0., 0., 0.,
          0., 0., 0., 0., 0., 0., 0., 0., 0. ]
      - [ 3.12779855e-04, -2.02818701e-04, 1.93303844e-04,
          -2.88442498e-05, 2.91457054e-05, 2.25084514e-04,
          -3.56725286e-05, -1.46427526e-04, 1.20560246e-04,
          -3.43077263e-05, 5.00621400e-06, -6.34225798e-05,
          -1.77269521e-05, -1.71322914e-04, 2.22947376e-04,
          -5.44841983e-04, 0., 0., 0., 0., 0., 0., 0., 0., 0., 0., 0.,
          0., 0., 0., 0., 0., 0., 0., 0., 0., 0., 0., 0., 0., 0., 0., 0.,
          0., 0., 0., 0., 0., 0., 0., 0., 0., 0., 0., 0., 0., 0., 0., 0.,
          0., 0., 0., 0., 0. ]
      - [ 7.43443787e-04, -3.96892683e-05, 2.24737916e-04,
          3.24450171e-04, 3.59661237e-04, -1.13984752e-04,
          -1.67910766e-04, 1.77830094e-04, 3.74019495e-04,
          -2.28224046e-04, 7.21120014e-05, -4.07649641e-04,
          -4.85945231e-04, -1.99951188e-04, 1.38082006e-03,
          1.80302901e-04, 0., 0., 0., 0., 0., 0., 0., 0., 0., 0., 0., 0.,
          0., 0., 0., 0., 0., 0., 0., 0., 0., 0., 0., 0., 0., 0., 0., 0.,
          0., 0., 0., 0., 0., 0., 0., 0., 0., 0., 0., 0., 0., 0., 0., 0.,
          0., 0., 0., 0. ]
      - [ 3.34869546e-04, -1.28754094e-04, 2.34472973e-04,
          -2.65774293e-06, 1.89672224e-04, 2.25137919e-05,
          -1.09790808e-05, -1.21047478e-05, -3.05747963e-04,
          -1.33018664e-04, -2.82227935e-04, 2.26015080e-04,
          1.85410041e-04, -3.82557424e-04, 3.45291075e-04,
          -7.27773644e-04, 0., 0., 0., 0., 0., 0., 0., 0., 0., 0., 0.,
          0., 0., 0., 0., 0., 0., 0., 0., 0., 0., 0., 0., 0., 0., 0., 0.,
          0., 0., 0., 0., 0., 0., 0., 0., 0., 0., 0., 0., 0., 0., 0., 0.,
          0., 0., 0., 0., 0. ]
      - [ -2.28276607e-04, -5.47507429e-04, 0., 0., 1.22325713e-04, 0.,
          3.15236539e-04, -2.17637818e-04, 1.03019032e-04,
          9.06207541e-04, 5.81852917e-04, 4.69188490e-05, 4.60328476e-04,
          1.11234293e-03, -1.48524923e-04, -3.45913868e-04, 0., 0., 0.,
          0., 0., 0., 0., 0., 0., 0., 0., 0., 0., 0., 0., 0., 0., 0., 0.,
          0., 0., 0., 0., 0., 0., 0., 0., 0., 0., 0., 0., 0., 0., 0., 0.,
          0., 0., 0., 0., 0., 0., 0., 0., 0., 0., 0., 0., 0. ]
      - [ 1.45672399e-04, 6.22067018e-05, 3.16747792e-05, 1.32726258e-04,
          -4.88709193e-04, -1.35234935e-04, -7.31486434e-05,
          -3.28206916e-05, 2.73454963e-04, -1.61901116e-04,
          -2.67848023e-04, 1.12318419e-04, 1.83336873e-04,
          -3.20650812e-04, 6.06577843e-04, -6.90534071e-04, 0., 0., 0.,
          0., 0., 0., 0., 0., 0., 0., 0., 0., 0., 0., 0., 0., 0., 0., 0.,
          0., 0., 0., 0., 0., 0., 0., 0., 0., 0., 0., 0., 0., 0., 0., 0.,
          0., 0., 0., 0., 0., 0., 0., 0., 0., 0., 0., 0., 0. ]
      - [ 7.08830567e-06, -1.16365727e-05, -7.63017451e-04,
          8.92269527e-05, -5.86994574e-04, -2.32789709e-04,
          3.53856361e-04, 3.06936854e-05, 4.73881897e-04,
          -8.00161706e-06, -1.76437723e-04, -4.43898112e-04,
          -4.18574229e-04, -1.83276730e-04, 7.80428061e-04,
          -2.18744055e-04, 0., 0., 0., 0., 0., 0., 0., 0., 0., 0., 0.,
          0., 0., 0., 0., 0., 0., 0., 0., 0., 0., 0., 0., 0., 0., 0., 0.,
          0., 0., 0., 0., 0., 0., 0., 0., 0., 0., 0., 0., 0., 0., 0., 0.,
          0., 0., 0., 0., 0. ]
      - [ 4.01890662e-04, -3.10430158e-04, 9.84941071e-05,
          8.69066353e-05, -7.59365212e-04, -1.19259574e-04,
          -4.58997791e-04, 1.89277547e-04, -1.06446903e-04,
          5.04665659e-04, 4.60302806e-04, 2.32092760e-04, 2.65054085e-04,
          -1.92545413e-04, 6.32453128e-04, -2.77554616e-04, 0., 0., 0.,
          0., 0., 0., 0., 0., 0., 0., 0., 0., 0., 0., 0., 0., 0., 0., 0.,
          0., 0., 0., 0., 0., 0., 0., 0., 0., 0., 0., 0., 0., 0., 0., 0.,
          0., 0., 0., 0., 0., 0., 0., 0., 0., 0., 0., 0., 0. ]
      - [ 2.25453536e-04, 7.17389456e-04, -1.42139424e-06,
          -1.79784125e-04, -5.56691666e-04, -1.17593743e-04,
          5.49772176e-06, 1.16358649e-04, 3.71198170e-04,
          -9.58426332e-04, -8.11264850e-04, 3.74939591e-05,
          -9.07311623e-05, -7.52669526e-04, 1.19210083e-04,
          2.93823337e-04, 0., 0., 0., 0., 0., 0., 0., 0., 0., 0., 0., 0.,
          0., 0., 0., 0., 0., 0., 0., 0., 0., 0., 0., 0., 0., 0., 0., 0.,
          0., 0., 0., 0., 0., 0., 0., 0., 0., 0., 0., 0., 0., 0., 0., 0.,
          0., 0., 0., 0. ]
      - [ 7.17935385e-04, 4.99868998e-04, -4.69284241e-05, 0.,
          -2.31028343e-06, -2.35226849e-04, -3.44740722e-04,
          2.74898397e-04, 5.48078388e-04, -7.72094587e-04,
          -9.79847391e-04, -6.34572352e-04, -7.52396008e-04,
          -3.33751814e-04, 4.16092138e-04, 2.04725962e-04, 0., 0., 0.,
          0., 0., 0., 0., 0., 0., 0., 0., 0., 0., 0., 0., 0., 0., 0., 0.,
          0., 0., 0., 0., 0., 0., 0., 0., 0., 0., 0., 0., 0., 0., 0., 0.,
          0., 0., 0., 0., 0., 0., 0., 0., 0., 0., 0., 0., 0. ]
      - [ 7.54989393e-04, 9.06071873e-05, 0., -8.85451809e-05,
          -6.57624856e-04, -2.79283122e-05, -9.54186486e-04,
          -8.13033985e-05, -3.22042033e-04, -2.98952946e-04,
          -9.24944470e-04, 3.21614469e-04, 4.04012710e-04,
          -1.61659694e-03, 3.45397013e-04, 8.83959467e-04, 0., 0., 0.,
          0., 0., 0., 0., 0., 0., 0., 0., 0., 0., 0., 0., 0., 0., 0., 0.,
          0., 0., 0., 0., 0., 0., 0., 0., 0., 0., 0., 0., 0., 0., 0., 0.,
          0., 0., 0., 0., 0., 0., 0., 0., 0., 0., 0., 0., 0. ]
      - [ 1.25127507e-03, 1.76615475e-04, -2.36006803e-04,
          2.28553661e-04, 1.88448321e-04, -1.08752865e-04,
          3.85775347e-04, 2.86343595e-04, -3.54764488e-05,
          9.22667750e-05, -3.77640936e-05, -2.16721106e-04,
          -3.26927257e-04, -5.58232568e-05, 1.74711196e-04,
          -1.00612105e-03, 0., 0., 0., 0., 0., 0., 0., 0., 0., 0., 0.,
          0., 0., 0., 0., 0., 0., 0., 0., 0., 0., 0., 0., 0., 0., 0., 0.,
          0., 0., 0., 0., 0., 0., 0., 0., 0., 0., 0., 0., 0., 0., 0., 0.,
          0., 0., 0., 0., 0. ]
      - [ 2.48723925e-04, -4.07087005e-04, -2.74288002e-04,
          1.57316797e-04, 3.10287287e-04, 1.15980831e-04, 6.87365100e-05,
          -3.44607659e-04, 5.09273923e-05, 1.77091992e-04,
          -2.95900711e-04, 4.37090232e-04, 6.43146108e-04,
          -9.10253555e-04, 3.59466241e-04, 3.42746993e-04, 0., 0., 0.,
          0., 0., 0., 0., 0., 0., 0., 0., 0., 0., 0., 0., 0., 0., 0., 0.,
          0., 0., 0., 0., 0., 0., 0., 0., 0., 0., 0., 0., 0., 0., 0., 0.,
          0., 0., 0., 0., 0., 0., 0., 0., 0., 0., 0., 0., 0. ]
      - [ -3.52300645e-04, -1.25608145e-04, 2.02368319e-04,
          -2.06193590e-06, 5.68367483e-04, 5.39956905e-04,
          1.95146524e-04, -1.82198728e-05, -3.15014535e-04,
          1.53107743e-04, -8.41742585e-05, 4.09688597e-04,
          7.24300975e-04, -4.49448358e-04, -7.88445643e-04,
          -1.00190775e-03, 0., 0., 0., 0., 0., 0., 0., 0., 0., 0., 0.,
          0., 0., 0., 0., 0., 0., 0., 0., 0., 0., 0., 0., 0., 0., 0., 0.,
          0., 0., 0., 0., 0., 0., 0., 0., 0., 0., 0., 0., 0., 0., 0., 0.,
          0., 0., 0., 0., 0. ]
   uncompressed_sv_total: 597
   uncompressed_support_vectors:
      - [ 0., 0., 0., 0., 0., 0., 0., 0., 7.16271912e+02, 7.91959610e+01,
          0., 4.42718887e+01, 224., 0., 0., 0., 0., 0., 0., 0., 0., 0.,
          0., 0., 0., 0., 0., 0., 0., 0., 0., 0., 0., 0., 0., 0., 0., 0.,
          0., 0., 0., 0., 0., 0., 0., 0., 0., 0., 0., 0., 0., 0., 0., 0.,
          0., 0., 0., 0., 0., 0., 0., 0., 0., 0. ]
      - [ 0., 0., 0., 0., 0., 0., 0., 0., 7.16271912e+02, 7.91959610e+01,
          0., 4.42718887e+01, 224., 0., 0., 0., 0., 0., 0., 0., 0., 0.,
          0., 0., 0., 0., 0., 0., 0., 0., 0., 0., 0., 0., 0., 0., 0., 0.,
          0., 0., 0., 0., 0., 0., 0., 0., 0., 0., 0., 0., 0., 0., 0., 0.,
          0., 0., 0., 0., 0., 0., 0., 0., 0., 0. ]
      - [ 0., 0., 0., 0., 0., 0., 0., 0., 7.16271912e+02, 7.91959610e+01,
          0., 4.42718887e+01, 224., 0., 0., 0., 0., 0., 0., 0., 0., 0.,
          0., 0., 0., 0., 0., 0., 0., 0., 0., 0., 0., 0., 0., 0., 0., 0.,
          0., 0., 0., 0., 0., 0., 0., 0., 0., 0., 0., 0., 0., 0., 0., 0.,
          0., 0., 0., 0., 0., 0., 0., 0., 0., 0. ]
      - [ 0., 0., 0., 0., 0., 0., 0., 0., 7.16271912e+02, 7.91959610e+01,
          0., 4.42718887e+01, 224., 0., 0., 0., 0., 0., 0., 0., 0., 0.,
          0., 0., 0., 0., 0., 0., 0., 0., 0., 0., 0., 0., 0., 0., 0., 0.,
          0., 0., 0., 0., 0., 0., 0., 0., 0., 0., 0., 0., 0., 0., 0., 0.,
          0., 0., 0., 0., 0., 0., 0., 0., 0., 0. ]
      - [ 0., 0., 0., 0., 0., 0., 0., 0., 7.16271912e+02, 7.91959610e+01,
          0., 4.42718887e+01, 224., 0., 0., 0., 0., 0., 0., 0., 0., 0.,
          0., 0., 0., 0., 0., 0., 0., 0., 0., 0., 0., 0., 0., 0., 0., 0.,
          0., 0., 0., 0., 0., 0., 0., 0., 0., 0., 0., 0., 0., 0., 0., 0.,
          0., 0., 0., 0., 0., 0., 0., 0., 0., 0. ]
      - [ 0., 0., 0., 0., 0., 0., 0., 0., 7.16271912e+02, 7.91959610e+01,
          0., 4.42718887e+01, 224., 0., 0., 0., 0., 0., 0., 0., 0., 0.,
          0., 0., 0., 0., 0., 0., 0., 0., 0., 0., 0., 0., 0., 0., 0., 0.,
          0., 0., 0., 0., 0., 0., 0., 0., 0., 0., 0., 0., 0., 0., 0., 0.,
          0., 0., 0., 0., 0., 0., 0., 0., 0., 0. ]
      - [ 0., 0., 0., 0., 0., 0., 0., 0., 7.16271912e+02, 7.91959610e+01,
          0., 4.42718887e+01, 224., 0., 0., 0., 0., 0., 0., 0., 0., 0.,
          0., 0., 0., 0., 0., 0., 0., 0., 0., 0., 0., 0., 0., 0., 0., 0.,
          0., 0., 0., 0., 0., 0., 0., 0., 0., 0., 0., 0., 0., 0., 0., 0.,
          0., 0., 0., 0., 0., 0., 0., 0., 0., 0. ]
      - [ 0., 0., 0., 0., 0., 0., 0., 0., 7.16271912e+02, 7.91959610e+01,
          0., 4.42718887e+01, 224., 0., 0., 0., 0., 0., 0., 0., 0., 0.,
          0., 0., 0., 0., 0., 0., 0., 0., 0., 0., 0., 0., 0., 0., 0., 0.,
          0., 0., 0., 0., 0., 0., 0., 0., 0., 0., 0., 0., 0., 0., 0., 0.,
          0., 0., 0., 0., 0., 0., 0., 0., 0., 0. ]
      - [ 0., 0., 0., 0., 0., 0., 0., 0., 7.16271912e+02, 7.91959610e+01,
          0., 4.42718887e+01, 224., 0., 0., 0., 0., 0., 0., 0., 0., 0.,
          0., 0., 0., 0., 0., 0., 0., 0., 0., 0., 0., 0., 0., 0., 0., 0.,
          0., 0., 0., 0., 0., 0., 0., 0., 0., 0., 0., 0., 0., 0., 0., 0.,
          0., 0., 0., 0., 0., 0., 0., 0., 0., 0. ]
      - [ 0., 0., 0., 0., 0., 0., 0., 0., 7.16271912e+02, 7.91959610e+01,
          0., 4.42718887e+01, 224., 0., 0., 0., 0., 0., 0., 0., 0., 0.,
          0., 0., 0., 0., 0., 0., 0., 0., 0., 0., 0., 0., 0., 0., 0., 0.,
          0., 0., 0., 0., 0., 0., 0., 0., 0., 0., 0., 0., 0., 0., 0., 0.,
          0., 0., 0., 0., 0., 0., 0., 0., 0., 0. ]
      - [ 0., 0., 0., 0., 0., 0., 0., 0., 7.16271912e+02, 7.91959610e+01,
          0., 4.42718887e+01, 224., 0., 0., 0., 0., 0., 0., 0., 0., 0.,
          0., 0., 0., 0., 0., 0., 0., 0., 0., 0., 0., 0., 0., 0., 0., 0.,
          0., 0., 0., 0., 0., 0., 0., 0., 0., 0., 0., 0., 0., 0., 0., 0.,
          0., 0., 0., 0., 0., 0., 0., 0., 0., 0. ]
      - [ 0., 0., 0., 0., 0., 0., 0., 0., 7.16271912e+02, 7.91959610e+01,
          0., 4.42718887e+01, 224., 0., 0., 0., 0., 0., 0., 0., 0., 0.,
          0., 0., 0., 0., 0., 0., 0., 0., 0., 0., 0., 0., 0., 0., 0., 0.,
          0., 0., 0., 0., 0., 0., 0., 0., 0., 0., 0., 0., 0., 0., 0., 0.,
          0., 0., 0., 0., 0., 0., 0., 0., 0., 0. ]
      - [ 0., 0., 0., 0., 0., 0., 0., 0., 7.16271912e+02, 7.91959610e+01,
          0., 4.42718887e+01, 224., 0., 0., 0., 0., 0., 0., 0., 0., 0.,
          0., 0., 0., 0., 0., 0., 0., 0., 0., 0., 0., 0., 0., 0., 0., 0.,
          0., 0., 0., 0., 0., 0., 0., 0., 0., 0., 0., 0., 0., 0., 0., 0.,
          0., 0., 0., 0., 0., 0., 0., 0., 0., 0. ]
      - [ 0., 0., 0., 0., 0., 0., 0., 0., 7.16271912e+02, 7.91959610e+01,
          0., 4.42718887e+01, 224., 0., 0., 0., 0., 0., 0., 0., 0., 0.,
          0., 0., 0., 0., 0., 0., 0., 0., 0., 0., 0., 0., 0., 0., 0., 0.,
          0., 0., 0., 0., 0., 0., 0., 0., 0., 0., 0., 0., 0., 0., 0., 0.,
          0., 0., 0., 0., 0., 0., 0., 0., 0., 0. ]
      - [ 0., 0., 0., 0., 0., 0., 0., 0., 7.16271912e+02, 7.91959610e+01,
          0., 4.42718887e+01, 224., 0., 0., 0., 0., 0., 0., 0., 0., 0.,
          0., 0., 0., 0., 0., 0., 0., 0., 0., 0., 0., 0., 0., 0., 0., 0.,
          0., 0., 0., 0., 0., 0., 0., 0., 0., 0., 0., 0., 0., 0., 0., 0.,
          0., 0., 0., 0., 0., 0., 0., 0., 0., 0. ]
      - [ 0., 0., 0., 0., 0., 0., 0., 0., 7.16271912e+02, 7.91959610e+01,
          0., 4.42718887e+01, 224., 0., 0., 0., 0., 0., 0., 0., 0., 0.,
          0., 0., 0., 0., 0., 0., 0., 0., 0., 0., 0., 0., 0., 0., 0., 0.,
          0., 0., 0., 0., 0., 0., 0., 0., 0., 0., 0., 0., 0., 0., 0., 0.,
          0., 0., 0., 0., 0., 0., 0., 0., 0., 0. ]
      - [ 0., 0., 0., 0., 0., 0., 0., 0., 7.16271912e+02, 7.91959610e+01,
          0., 4.42718887e+01, 224., 0., 0., 0., 0., 0., 0., 0., 0., 0.,
          0., 0., 0., 0., 0., 0., 0., 0., 0., 0., 0., 0., 0., 0., 0., 0.,
          0., 0., 0., 0., 0., 0., 0., 0., 0., 0., 0., 0., 0., 0., 0., 0.,
          0., 0., 0., 0., 0., 0., 0., 0., 0., 0. ]
      - [ 0., 0., 0., 0., 0., 0., 0., 0., 7.16271912e+02, 7.91959610e+01,
          0., 4.42718887e+01, 224., 0., 0., 0., 0., 0., 0., 0., 0., 0.,
          0., 0., 0., 0., 0., 0., 0., 0., 0., 0., 0., 0., 0., 0., 0., 0.,
          0., 0., 0., 0., 0., 0., 0., 0., 0., 0., 0., 0., 0., 0., 0., 0.,
          0., 0., 0., 0., 0., 0., 0., 0., 0., 0. ]
      - [ 0., 0., 0., 0., 0., 0., 0., 0., 7.16271912e+02, 7.91959610e+01,
          0., 4.42718887e+01, 224., 0., 0., 0., 0., 0., 0., 0., 0., 0.,
          0., 0., 0., 0., 0., 0., 0., 0., 0., 0., 0., 0., 0., 0., 0., 0.,
          0., 0., 0., 0., 0., 0., 0., 0., 0., 0., 0., 0., 0., 0., 0., 0.,
          0., 0., 0., 0., 0., 0., 0., 0., 0., 0. ]
      - [ 0., 0., 0., 0., 0., 0., 0., 0., 7.16271912e+02, 7.91959610e+01,
          0., 4.42718887e+01, 224., 0., 0., 0., 0., 0., 0., 0., 0., 0.,
          0., 0., 0., 0., 0., 0., 0., 0., 0., 0., 0., 0., 0., 0., 0., 0.,
          0., 0., 0., 0., 0., 0., 0., 0., 0., 0., 0., 0., 0., 0., 0., 0.,
          0., 0., 0., 0., 0., 0., 0., 0., 0., 0. ]
      - [ 0., 0., 0., 0., 0., 0., 0., 0., 7.16271912e+02, 7.91959610e+01,
          0., 4.42718887e+01, 224., 0., 0., 0., 0., 0., 0., 0., 0., 0.,
          0., 0., 0., 0., 0., 0., 0., 0., 0., 0., 0., 0., 0., 0., 0., 0.,
          0., 0., 0., 0., 0., 0., 0., 0., 0., 0., 0., 0., 0., 0., 0., 0.,
          0., 0., 0., 0., 0., 0., 0., 0., 0., 0. ]
      - [ 0., 0., 0., 0., 0., 0., 0., 0., 7.16271912e+02, 7.91959610e+01,
          0., 4.42718887e+01, 224., 0., 0., 0., 0., 0., 0., 0., 0., 0.,
          0., 0., 0., 0., 0., 0., 0., 0., 0., 0., 0., 0., 0., 0., 0., 0.,
          0., 0., 0., 0., 0., 0., 0., 0., 0., 0., 0., 0., 0., 0., 0., 0.,
          0., 0., 0., 0., 0., 0., 0., 0., 0., 0. ]
      - [ 0., 0., 0., 0., 0., 0., 0., 0., 7.16271912e+02, 7.91959610e+01,
          0., 4.42718887e+01, 224., 0., 0., 0., 0., 0., 0., 0., 0., 0.,
          0., 0., 0., 0., 0., 0., 0., 0., 0., 0., 0., 0., 0., 0., 0., 0.,
          0., 0., 0., 0., 0., 0., 0., 0., 0., 0., 0., 0., 0., 0., 0., 0.,
          0., 0., 0., 0., 0., 0., 0., 0., 0., 0. ]
      - [ 0., 0., 0., 0., 0., 0., 0., 0., 7.16271912e+02, 7.91959610e+01,
          0., 4.42718887e+01, 224., 0., 0., 0., 0., 0., 0., 0., 0., 0.,
          0., 0., 0., 0., 0., 0., 0., 0., 0., 0., 0., 0., 0., 0., 0., 0.,
          0., 0., 0., 0., 0., 0., 0., 0., 0., 0., 0., 0., 0., 0., 0., 0.,
          0., 0., 0., 0., 0., 0., 0., 0., 0., 0. ]
      - [ 0., 0., 0., 0., 0., 0., 0., 0., 7.16271912e+02, 7.91959610e+01,
          0., 4.42718887e+01, 224., 0., 0., 0., 0., 0., 0., 0., 0., 0.,
          0., 0., 0., 0., 0., 0., 0., 0., 0., 0., 0., 0., 0., 0., 0., 0.,
          0., 0., 0., 0., 0., 0., 0., 0., 0., 0., 0., 0., 0., 0., 0., 0.,
          0., 0., 0., 0., 0., 0., 0., 0., 0., 0. ]
      - [ 0., 0., 0., 0., 0., 0., 0., 0., 7.16271912e+02, 7.91959610e+01,
          0., 4.42718887e+01, 224., 0., 0., 0., 0., 0., 0., 0., 0., 0.,
          0., 0., 0., 0., 0., 0., 0., 0., 0., 0., 0., 0., 0., 0., 0., 0.,
          0., 0., 0., 0., 0., 0., 0., 0., 0., 0., 0., 0., 0., 0., 0., 0.,
          0., 0., 0., 0., 0., 0., 0., 0., 0., 0. ]
      - [ 0., 0., 0., 0., 0., 0., 0., 0., 7.16271912e+02, 7.91959610e+01,
          0., 4.42718887e+01, 224., 0., 0., 0., 0., 0., 0., 0., 0., 0.,
          0., 0., 0., 0., 0., 0., 0., 0., 0., 0., 0., 0., 0., 0., 0., 0.,
          0., 0., 0., 0., 0., 0., 0., 0., 0., 0., 0., 0., 0., 0., 0., 0.,
          0., 0., 0., 0., 0., 0., 0., 0., 0., 0. ]
      - [ 0., 0., 0., 0., 0., 0., 0., 0., 7.16271912e+02, 7.91959610e+01,
          0., 4.42718887e+01, 224., 0., 0., 0., 0., 0., 0., 0., 0., 0.,
          0., 0., 0., 0., 0., 0., 0., 0., 0., 0., 0., 0., 0., 0., 0., 0.,
          0., 0., 0., 0., 0., 0., 0., 0., 0., 0., 0., 0., 0., 0., 0., 0.,
          0., 0., 0., 0., 0., 0., 0., 0., 0., 0. ]
      - [ 0., 0., 0., 0., 0., 0., 0., 0., 7.16271912e+02, 7.91959610e+01,
          0., 4.42718887e+01, 224., 0., 0., 0., 0., 0., 0., 0., 0., 0.,
          0., 0., 0., 0., 0., 0., 0., 0., 0., 0., 0., 0., 0., 0., 0., 0.,
          0., 0., 0., 0., 0., 0., 0., 0., 0., 0., 0., 0., 0., 0., 0., 0.,
          0., 0., 0., 0., 0., 0., 0., 0., 0., 0. ]
      - [ 0., 0., 0., 0., 0., 0., 0., 0., 7.16271912e+02, 7.91959610e+01,
          0., 4.42718887e+01, 224., 0., 0., 0., 0., 0., 0., 0., 0., 0.,
          0., 0., 0., 0., 0., 0., 0., 0., 0., 0., 0., 0., 0., 0., 0., 0.,
          0., 0., 0., 0., 0., 0., 0., 0., 0., 0., 0., 0., 0., 0., 0., 0.,
          0., 0., 0., 0., 0., 0., 0., 0., 0., 0. ]
      - [ 6.32455540e+00, 0., 0., 3.16227770e+00, 18., 0., 0.,
          3.59292755e+02, 4.09466431e+02, 8.76962814e+01, 0.,
          1.73743362e+02, 126., 0., 0., 0., 0., 0., 0., 0., 0., 0., 0.,
          0., 0., 0., 0., 0., 0., 0., 0., 0., 0., 0., 0., 0., 0., 0., 0.,
          0., 0., 0., 0., 0., 0., 0., 0., 0., 0., 0., 0., 0., 0., 0., 0.,
          0., 0., 0., 0., 0., 0., 0., 0., 0. ]
      - [ 18., 4.24264050e+00, 0., 0., 2., 0., 0., 1.18084694e+02,
          6.43434143e+02, 8.48528137e+01, 0., 4.74341660e+01,
          2.34084686e+02, 0., 0., 0., 0., 0., 0., 0., 0., 0., 0., 0., 0.,
          0., 0., 0., 0., 0., 0., 0., 0., 0., 0., 0., 0., 0., 0., 0., 0.,
          0., 0., 0., 0., 0., 0., 0., 0., 0., 0., 0., 0., 0., 0., 0., 0.,
          0., 0., 0., 0., 0., 0., 0. ]
      - [ 4., 0., 0., 9.05538559e+00, 2.82333450e+01, 0., 0.,
          3.22857178e+02, 4.80701202e+02, 9.90085449e+01, 0.,
          5.69209976e+01, 2.77007446e+02, 0., 1.41421354e+00, 0., 0., 0.,
          0., 0., 0., 0., 0., 0., 0., 0., 0., 0., 0., 0., 0., 0., 0., 0.,
          0., 0., 0., 0., 0., 0., 0., 0., 0., 0., 0., 0., 0., 0., 0., 0.,
          0., 0., 0., 0., 0., 0., 0., 0., 0., 0., 0., 0., 0., 0. ]
      - [ 2., 0., 4.47213602e+00, 2.67055473e+01, 30., 0., 0.,
          6.08147034e+02, 2.52728912e+02, 1.06078873e+02, 0.,
          6.19838676e+01, 2.97034271e+02, 0., 0., 0., 0., 0., 0., 0., 0.,
          0., 0., 0., 0., 0., 0., 0., 0., 0., 0., 0., 0., 0., 0., 0., 0.,
          0., 0., 0., 0., 0., 0., 0., 0., 0., 0., 0., 0., 0., 0., 0., 0.,
          0., 0., 0., 0., 0., 0., 0., 0., 0., 0., 0. ]
      - [ 2., 0., 4.47213602e+00, 5.09901953e+00, 5.14084892e+01, 0., 0.,
          6.75851990e+02, 1.80728912e+02, 1.06078873e+02, 0.,
          6.19838676e+01, 2.97034271e+02, 0., 0., 0., 0., 0., 0., 0., 0.,
          0., 0., 0., 0., 0., 0., 0., 0., 0., 0., 0., 0., 0., 0., 0., 0.,
          0., 0., 0., 0., 0., 0., 0., 0., 0., 0., 0., 0., 0., 0., 0., 0.,
          0., 0., 0., 0., 0., 0., 0., 0., 0., 0., 0. ]
      - [ 2., 0., 2.98356361e+01, 1.07703295e+01, 44., 0., 0.,
          5.57254639e+02, 3.33254242e+02, 1.41421354e+00, 1.18870514e+02,
          7.08801804e+01, 3.18577118e+02, 0., 0., 0., 0., 0., 0., 0., 0.,
          0., 0., 0., 0., 0., 0., 0., 0., 0., 0., 0., 0., 0., 0., 0., 0.,
          0., 0., 0., 0., 0., 0., 0., 0., 0., 0., 0., 0., 0., 0., 0., 0.,
          0., 0., 0., 0., 0., 0., 0., 0., 0., 0., 0. ]
      - [ 4., 4.47213602e+00, 8.48501358e+01, 2.21359444e+01, 88., 0.,
          0., 7.70376587e+02, 2.42478012e+02, 2.82842708e+00,
          1.55660858e+02, 9.49210205e+01, 4.11458130e+02, 0., 0., 0., 0.,
          0., 0., 0., 0., 0., 0., 0., 0., 0., 0., 0., 0., 0., 0., 0., 0.,
          0., 0., 0., 0., 0., 0., 0., 0., 0., 0., 0., 0., 0., 0., 0., 0.,
          0., 0., 0., 0., 0., 0., 0., 0., 0., 0., 0., 0., 0., 0., 0. ]
      - [ 4.01700859e+01, 0., 0., 0., 0., 0., 1.41421354e+00,
          2.43462509e+02, 5.43466309e+02, 2.40416298e+01, 6.51152802e+01,
          4.93355865e+01, 2.36332581e+02, 0., 0., 0., 0., 0., 0., 0., 0.,
          0., 0., 0., 0., 0., 0., 0., 0., 0., 0., 0., 0., 0., 0., 0., 0.,
          0., 0., 0., 0., 0., 0., 0., 0., 0., 0., 0., 0., 0., 0., 0., 0.,
          0., 0., 0., 0., 0., 0., 0., 0., 0., 0., 0. ]
      - [ 4., 0., 7.20621338e+01, 1.58113880e+01, 76., 0., 0.,
          1.06854102e+03, 2.92995483e+02, 1.81026871e+02, 0.,
          1.03092194e+02, 4.99117218e+02, 0., 0., 0., 0., 0., 0., 0., 0.,
          0., 0., 0., 0., 0., 0., 0., 0., 0., 0., 0., 0., 0., 0., 0., 0.,
          0., 0., 0., 0., 0., 0., 0., 0., 0., 0., 0., 0., 0., 0., 0., 0.,
          0., 0., 0., 0., 0., 0., 0., 0., 0., 0., 0. ]
      - [ 5.74255066e+01, 0., 0., 0., 8., 0., 0., 3.64153290e+02,
          4.56097565e+02, 2.68700581e+01, 7.07672272e+01, 5.44058838e+01,
          2.54689301e+02, 0., 0., 0., 0., 0., 0., 0., 0., 0., 0., 0., 0.,
          0., 0., 0., 0., 0., 0., 0., 0., 0., 0., 0., 0., 0., 0., 0., 0.,
          0., 0., 0., 0., 0., 0., 0., 0., 0., 0., 0., 0., 0., 0., 0., 0.,
          0., 0., 0., 0., 0., 0., 0. ]
      - [ 8.53957520e+01, 1.20830460e+01, 0., 0., 20., 0., 0.,
          9.37789734e+02, 4.40738739e+02, 1.41421354e+00, 1.64205475e+02,
          9.49210205e+01, 4.32289307e+02, 0., 0., 0., 0., 0., 0., 0., 0.,
          0., 0., 0., 0., 0., 0., 0., 0., 0., 0., 0., 0., 0., 0., 0., 0.,
          0., 0., 0., 0., 0., 0., 0., 0., 0., 0., 0., 0., 0., 0., 0., 0.,
          0., 0., 0., 0., 0., 0., 0., 0., 0., 0., 0. ]
      - [ 3.45774994e+01, 2.81812305e+01, 1.56204996e+01, 0., 32., 0.,
          0., 1.41079626e+03, 3.78903320e+02, 2.09303604e+02, 0.,
          1.18903320e+02, 5.74313538e+02, 0., 0., 0., 0., 0., 0., 0., 0.,
          0., 0., 0., 0., 0., 0., 0., 0., 0., 0., 0., 0., 0., 0., 0., 0.,
          0., 0., 0., 0., 0., 0., 0., 0., 0., 0., 0., 0., 0., 0., 0., 0.,
          0., 0., 0., 0., 0., 0., 0., 0., 0., 0., 0. ]
      - [ 3.22484589e+01, 4.82738647e+01, 20., 0., 44., 0., 0.,
          1.55828381e+03, 4.43675812e+02, 6.36396103e+01, 1.76827606e+02,
          1.35358780e+02, 6.46764465e+02, 0., 0., 0., 0., 0., 0., 0., 0.,
          0., 0., 0., 0., 0., 0., 0., 0., 0., 0., 0., 0., 0., 0., 0., 0.,
          0., 0., 0., 0., 0., 0., 0., 0., 0., 0., 0., 0., 0., 0., 0., 0.,
          0., 0., 0., 0., 0., 0., 0., 0., 0., 0., 0. ]
      - [ 9.16227722e+00, 2.82842708e+00, 0., 0., 2., 0., 0.,
          2.28088654e+02, 4.98478943e+02, 2.26274166e+01, 6.08276253e+01,
          4.61735840e+01, 2.26087662e+02, 0., 0., 0., 0., 0., 0., 0., 0.,
          0., 0., 0., 0., 0., 0., 0., 0., 0., 0., 0., 0., 0., 0., 0., 0.,
          0., 0., 0., 0., 0., 0., 0., 0., 0., 0., 0., 0., 0., 0., 0., 0.,
          0., 0., 0., 0., 0., 0., 0., 0., 0., 0., 0. ]
      - [ 0., 0., 0., 0., 14., 1.03030872e+01, 5.65685415e+00,
          3.78232300e+02, 4.44596436e+02, 9.33522339e+01, 0.,
          1.85939804e+02, 136., 0., 0., 0., 0., 0., 0., 0., 0., 0., 0.,
          0., 0., 0., 0., 0., 0., 0., 0., 0., 0., 0., 0., 0., 0., 0., 0.,
          0., 0., 0., 0., 0., 0., 0., 0., 0., 0., 0., 0., 0., 0., 0., 0.,
          0., 0., 0., 0., 0., 0., 0., 0., 0. ]
      - [ 2.63245544e+01, 1.02956305e+01, 0., 0., 6., 0., 0.,
          1.98295685e+02, 6.63939026e+02, 2.96984844e+01, 7.21387558e+01,
          5.94810905e+01, 2.68867462e+02, 0., 0., 5.09901953e+00, 0., 0.,
          0., 0., 0., 0., 0., 0., 0., 0., 0., 0., 0., 0., 0., 0., 0., 0.,
          0., 0., 0., 0., 0., 0., 0., 0., 0., 0., 0., 0., 0., 0., 0., 0.,
          0., 0., 0., 0., 0., 0., 0., 0., 0., 0., 0., 0., 0., 0. ]
      - [ 6.06706772e+01, 4.66526756e+01, 0., 0., 30., 0., 0.,
          4.70235687e+02, 7.07218811e+02, 4.10121956e+01, 1.06075447e+02,
          8.47702789e+01, 3.82688904e+02, 0., 0., 2.10237961e+01, 0., 0.,
          0., 0., 0., 0., 0., 0., 0., 0., 0., 0., 0., 0., 0., 0., 0., 0.,
          0., 0., 0., 0., 0., 0., 0., 0., 0., 0., 0., 0., 0., 0., 0., 0.,
          0., 0., 0., 0., 0., 0., 0., 0., 0., 0., 0., 0., 0., 0. ]
      - [ 4.17397766e+01, 7.00182495e+01, 0., 0., 40., 0., 0.,
          1.01486658e+03, 4.49045471e+02, 1.41421354e+00, 1.83935089e+02,
          1.07563934e+02, 4.85483032e+02, 0., 0., 0., 0., 0., 0., 0., 0.,
          0., 0., 0., 0., 0., 0., 0., 0., 0., 0., 0., 0., 0., 0., 0., 0.,
          0., 0., 0., 0., 0., 0., 0., 0., 0., 0., 0., 0., 0., 0., 0., 0.,
          0., 0., 0., 0., 0., 0., 0., 0., 0., 0., 0. ]
      - [ 12., 0., 1.31339874e+02, 0., 110., 0., 0., 1.83959082e+03,
          4.89303223e+02, 3.04073700e+02, 0., 1.75823776e+02,
          8.36389343e+02, 0., 0., 0., 0., 0., 0., 0., 0., 0., 0., 0., 0.,
          0., 0., 0., 0., 0., 0., 0., 0., 0., 0., 0., 0., 0., 0., 0., 0.,
          0., 0., 0., 0., 0., 0., 0., 0., 0., 0., 0., 0., 0., 0., 0., 0.,
          0., 0., 0., 0., 0., 0., 0. ]
      - [ 20., 5.38967667e+01, 1.07908104e+02, 0., 124., 0., 0.,
          2.05799731e+03, 5.52086731e+02, 3.40841461e+02, 0.,
          1.98600098e+02, 9.31709473e+02, 0., 0., 0., 0., 0., 0., 0., 0.,
          0., 0., 0., 0., 0., 0., 0., 0., 0., 0., 0., 0., 0., 0., 0., 0.,
          0., 0., 0., 0., 0., 0., 0., 0., 0., 0., 0., 0., 0., 0., 0., 0.,
          0., 0., 0., 0., 0., 0., 0., 0., 0., 0., 0. ]
      - [ 22., 1.54272141e+02, 4.81663780e+01, 0., 126., 0., 0.,
          2.49981299e+03, 6.68125000e+02, 4.03054230e+02, 0.,
          2.33383804e+02, 1.09598682e+03, 0., 0., 0., 0., 0., 0., 0., 0.,
          0., 0., 0., 0., 0., 0., 0., 0., 0., 0., 0., 0., 0., 0., 0., 0.,
          0., 0., 0., 0., 0., 0., 0., 0., 0., 0., 0., 0., 0., 0., 0., 0.,
          0., 0., 0., 0., 0., 0., 0., 0., 0., 0., 0. ]
      - [ 34., 2.06676132e+02, 0., 0., 110., 0., 0., 3.18161230e+03,
          8.44691711e+02, 1.21622368e+02, 3.56384613e+02, 2.69429016e+02,
          1.31360205e+03, 0., 0., 0., 0., 0., 0., 0., 0., 0., 0., 0., 0.,
          0., 0., 0., 0., 0., 0., 0., 0., 0., 0., 0., 0., 0., 0., 0., 0.,
          0., 0., 0., 0., 0., 0., 0., 0., 0., 0., 0., 0., 0., 0., 0., 0.,
          0., 0., 0., 0., 0., 0., 0. ]
      - [ 0., 0., 0., 0., 0., 0., 0., 0., 7.16271912e+02, 7.91959610e+01,
          0., 4.42718887e+01, 224., 0., 0., 0., 0., 0., 0., 0., 0., 0.,
          0., 0., 0., 0., 0., 0., 0., 0., 0., 0., 0., 0., 0., 0., 0., 0.,
          0., 0., 0., 0., 0., 0., 0., 0., 0., 0., 0., 0., 0., 0., 0., 0.,
          0., 0., 0., 0., 0., 0., 0., 0., 0., 0. ]
      - [ 0., 0., 0., 0., 0., 0., 0., 0., 7.16271912e+02, 7.91959610e+01,
          0., 4.42718887e+01, 224., 0., 0., 0., 0., 0., 0., 0., 0., 0.,
          0., 0., 0., 0., 0., 0., 0., 0., 0., 0., 0., 0., 0., 0., 0., 0.,
          0., 0., 0., 0., 0., 0., 0., 0., 0., 0., 0., 0., 0., 0., 0., 0.,
          0., 0., 0., 0., 0., 0., 0., 0., 0., 0. ]
      - [ 0., 0., 0., 0., 0., 0., 0., 0., 7.16271912e+02, 7.91959610e+01,
          0., 4.42718887e+01, 224., 0., 0., 0., 0., 0., 0., 0., 0., 0.,
          0., 0., 0., 0., 0., 0., 0., 0., 0., 0., 0., 0., 0., 0., 0., 0.,
          0., 0., 0., 0., 0., 0., 0., 0., 0., 0., 0., 0., 0., 0., 0., 0.,
          0., 0., 0., 0., 0., 0., 0., 0., 0., 0. ]
      - [ 0., 0., 0., 0., 0., 0., 0., 0., 7.16271912e+02, 7.91959610e+01,
          0., 4.42718887e+01, 224., 0., 0., 0., 0., 0., 0., 0., 0., 0.,
          0., 0., 0., 0., 0., 0., 0., 0., 0., 0., 0., 0., 0., 0., 0., 0.,
          0., 0., 0., 0., 0., 0., 0., 0., 0., 0., 0., 0., 0., 0., 0., 0.,
          0., 0., 0., 0., 0., 0., 0., 0., 0., 0. ]
      - [ 0., 0., 0., 0., 0., 0., 0., 0., 7.16271912e+02, 7.91959610e+01,
          0., 4.42718887e+01, 224., 0., 0., 0., 0., 0., 0., 0., 0., 0.,
          0., 0., 0., 0., 0., 0., 0., 0., 0., 0., 0., 0., 0., 0., 0., 0.,
          0., 0., 0., 0., 0., 0., 0., 0., 0., 0., 0., 0., 0., 0., 0., 0.,
          0., 0., 0., 0., 0., 0., 0., 0., 0., 0. ]
      - [ 0., 0., 0., 0., 0., 0., 0., 0., 7.16271912e+02, 7.91959610e+01,
          0., 4.42718887e+01, 224., 0., 0., 0., 0., 0., 0., 0., 0., 0.,
          0., 0., 0., 0., 0., 0., 0., 0., 0., 0., 0., 0., 0., 0., 0., 0.,
          0., 0., 0., 0., 0., 0., 0., 0., 0., 0., 0., 0., 0., 0., 0., 0.,
          0., 0., 0., 0., 0., 0., 0., 0., 0., 0. ]
      - [ 0., 0., 0., 0., 0., 0., 0., 0., 7.16271912e+02, 7.91959610e+01,
          0., 4.42718887e+01, 224., 0., 0., 0., 0., 0., 0., 0., 0., 0.,
          0., 0., 0., 0., 0., 0., 0., 0., 0., 0., 0., 0., 0., 0., 0., 0.,
          0., 0., 0., 0., 0., 0., 0., 0., 0., 0., 0., 0., 0., 0., 0., 0.,
          0., 0., 0., 0., 0., 0., 0., 0., 0., 0. ]
      - [ 0., 0., 0., 0., 0., 0., 0., 0., 7.16271912e+02, 7.91959610e+01,
          0., 4.42718887e+01, 224., 0., 0., 0., 0., 0., 0., 0., 0., 0.,
          0., 0., 0., 0., 0., 0., 0., 0., 0., 0., 0., 0., 0., 0., 0., 0.,
          0., 0., 0., 0., 0., 0., 0., 0., 0., 0., 0., 0., 0., 0., 0., 0.,
          0., 0., 0., 0., 0., 0., 0., 0., 0., 0. ]
      - [ 0., 0., 0., 0., 0., 0., 0., 0., 7.16271912e+02, 7.91959610e+01,
          0., 4.42718887e+01, 224., 0., 0., 0., 0., 0., 0., 0., 0., 0.,
          0., 0., 0., 0., 0., 0., 0., 0., 0., 0., 0., 0., 0., 0., 0., 0.,
          0., 0., 0., 0., 0., 0., 0., 0., 0., 0., 0., 0., 0., 0., 0., 0.,
          0., 0., 0., 0., 0., 0., 0., 0., 0., 0. ]
      - [ 0., 0., 0., 0., 0., 0., 0., 0., 7.16271912e+02, 7.91959610e+01,
          0., 4.42718887e+01, 224., 0., 0., 0., 0., 0., 0., 0., 0., 0.,
          0., 0., 0., 0., 0., 0., 0., 0., 0., 0., 0., 0., 0., 0., 0., 0.,
          0., 0., 0., 0., 0., 0., 0., 0., 0., 0., 0., 0., 0., 0., 0., 0.,
          0., 0., 0., 0., 0., 0., 0., 0., 0., 0. ]
      - [ 0., 0., 0., 0., 0., 0., 0., 0., 7.16271912e+02, 7.91959610e+01,
          0., 4.42718887e+01, 224., 0., 0., 0., 0., 0., 0., 0., 0., 0.,
          0., 0., 0., 0., 0., 0., 0., 0., 0., 0., 0., 0., 0., 0., 0., 0.,
          0., 0., 0., 0., 0., 0., 0., 0., 0., 0., 0., 0., 0., 0., 0., 0.,
          0., 0., 0., 0., 0., 0., 0., 0., 0., 0. ]
      - [ 0., 0., 0., 0., 0., 0., 0., 0., 7.16271912e+02, 7.91959610e+01,
          0., 4.42718887e+01, 224., 0., 0., 0., 0., 0., 0., 0., 0., 0.,
          0., 0., 0., 0., 0., 0., 0., 0., 0., 0., 0., 0., 0., 0., 0., 0.,
          0., 0., 0., 0., 0., 0., 0., 0., 0., 0., 0., 0., 0., 0., 0., 0.,
          0., 0., 0., 0., 0., 0., 0., 0., 0., 0. ]
      - [ 0., 0., 0., 0., 0., 0., 0., 0., 7.16271912e+02, 7.91959610e+01,
          0., 4.42718887e+01, 224., 0., 0., 0., 0., 0., 0., 0., 0., 0.,
          0., 0., 0., 0., 0., 0., 0., 0., 0., 0., 0., 0., 0., 0., 0., 0.,
          0., 0., 0., 0., 0., 0., 0., 0., 0., 0., 0., 0., 0., 0., 0., 0.,
          0., 0., 0., 0., 0., 0., 0., 0., 0., 0. ]
      - [ 0., 0., 0., 0., 0., 0., 0., 0., 7.16271912e+02, 7.91959610e+01,
          0., 4.42718887e+01, 224., 0., 0., 0., 0., 0., 0., 0., 0., 0.,
          0., 0., 0., 0., 0., 0., 0., 0., 0., 0., 0., 0., 0., 0., 0., 0.,
          0., 0., 0., 0., 0., 0., 0., 0., 0., 0., 0., 0., 0., 0., 0., 0.,
          0., 0., 0., 0., 0., 0., 0., 0., 0., 0. ]
      - [ 0., 0., 0., 0., 0., 0., 0., 0., 7.16271912e+02, 7.91959610e+01,
          0., 4.42718887e+01, 224., 0., 0., 0., 0., 0., 0., 0., 0., 0.,
          0., 0., 0., 0., 0., 0., 0., 0., 0., 0., 0., 0., 0., 0., 0., 0.,
          0., 0., 0., 0., 0., 0., 0., 0., 0., 0., 0., 0., 0., 0., 0., 0.,
          0., 0., 0., 0., 0., 0., 0., 0., 0., 0. ]
      - [ 0., 0., 0., 0., 0., 0., 0., 0., 7.16271912e+02, 7.91959610e+01,
          0., 4.42718887e+01, 224., 0., 0., 0., 0., 0., 0., 0., 0., 0.,
          0., 0., 0., 0., 0., 0., 0., 0., 0., 0., 0., 0., 0., 0., 0., 0.,
          0., 0., 0., 0., 0., 0., 0., 0., 0., 0., 0., 0., 0., 0., 0., 0.,
          0., 0., 0., 0., 0., 0., 0., 0., 0., 0. ]
      - [ 0., 0., 0., 0., 0., 0., 0., 0., 7.16271912e+02, 7.91959610e+01,
          0., 4.42718887e+01, 224., 0., 0., 0., 0., 0., 0., 0., 0., 0.,
          0., 0., 0., 0., 0., 0., 0., 0., 0., 0., 0., 0., 0., 0., 0., 0.,
          0., 0., 0., 0., 0., 0., 0., 0., 0., 0., 0., 0., 0., 0., 0., 0.,
          0., 0., 0., 0., 0., 0., 0., 0., 0., 0. ]
      - [ 0., 0., 0., 0., 0., 0., 0., 0., 7.16271912e+02, 7.91959610e+01,
          0., 4.42718887e+01, 224., 0., 0., 0., 0., 0., 0., 0., 0., 0.,
          0., 0., 0., 0., 0., 0., 0., 0., 0., 0., 0., 0., 0., 0., 0., 0.,
          0., 0., 0., 0., 0., 0., 0., 0., 0., 0., 0., 0., 0., 0., 0., 0.,
          0., 0., 0., 0., 0., 0., 0., 0., 0., 0. ]
      - [ 0., 0., 0., 0., 0., 0., 0., 0., 7.16271912e+02, 7.91959610e+01,
          0., 4.42718887e+01, 224., 0., 0., 0., 0., 0., 0., 0., 0., 0.,
          0., 0., 0., 0., 0., 0., 0., 0., 0., 0., 0., 0., 0., 0., 0., 0.,
          0., 0., 0., 0., 0., 0., 0., 0., 0., 0., 0., 0., 0., 0., 0., 0.,
          0., 0., 0., 0., 0., 0., 0., 0., 0., 0. ]
      - [ 0., 0., 0., 0., 0., 0., 0., 0., 7.16271912e+02, 7.91959610e+01,
          0., 4.42718887e+01, 224., 0., 0., 0., 0., 0., 0., 0., 0., 0.,
          0., 0., 0., 0., 0., 0., 0., 0., 0., 0., 0., 0., 0., 0., 0., 0.,
          0., 0., 0., 0., 0., 0., 0., 0., 0., 0., 0., 0., 0., 0., 0., 0.,
          0., 0., 0., 0., 0., 0., 0., 0., 0., 0. ]
      - [ 0., 0., 0., 0., 0., 0., 0., 0., 7.16271912e+02, 7.91959610e+01,
          0., 4.42718887e+01, 224., 0., 0., 0., 0., 0., 0., 0., 0., 0.,
          0., 0., 0., 0., 0., 0., 0., 0., 0., 0., 0., 0., 0., 0., 0., 0.,
          0., 0., 0., 0., 0., 0., 0., 0., 0., 0., 0., 0., 0., 0., 0., 0.,
          0., 0., 0., 0., 0., 0., 0., 0., 0., 0. ]
      - [ 0., 0., 0., 0., 0., 0., 0., 0., 7.16271912e+02, 7.91959610e+01,
          0., 4.42718887e+01, 224., 0., 0., 0., 0., 0., 0., 0., 0., 0.,
          0., 0., 0., 0., 0., 0., 0., 0., 0., 0., 0., 0., 0., 0., 0., 0.,
          0., 0., 0., 0., 0., 0., 0., 0., 0., 0., 0., 0., 0., 0., 0., 0.,
          0., 0., 0., 0., 0., 0., 0., 0., 0., 0. ]
      - [ 0., 0., 0., 0., 0., 0., 0., 0., 7.16271912e+02, 7.91959610e+01,
          0., 4.42718887e+01, 224., 0., 0., 0., 0., 0., 0., 0., 0., 0.,
          0., 0., 0., 0., 0., 0., 0., 0., 0., 0., 0., 0., 0., 0., 0., 0.,
          0., 0., 0., 0., 0., 0., 0., 0., 0., 0., 0., 0., 0., 0., 0., 0.,
          0., 0., 0., 0., 0., 0., 0., 0., 0., 0. ]
      - [ 0., 0., 0., 0., 0., 0., 0., 0., 7.16271912e+02, 7.91959610e+01,
          0., 4.42718887e+01, 224., 0., 0., 0., 0., 0., 0., 0., 0., 0.,
          0., 0., 0., 0., 0., 0., 0., 0., 0., 0., 0., 0., 0., 0., 0., 0.,
          0., 0., 0., 0., 0., 0., 0., 0., 0., 0., 0., 0., 0., 0., 0., 0.,
          0., 0., 0., 0., 0., 0., 0., 0., 0., 0. ]
      - [ 0., 0., 0., 0., 0., 0., 0., 0., 7.16271912e+02, 7.91959610e+01,
          0., 4.42718887e+01, 224., 0., 0., 0., 0., 0., 0., 0., 0., 0.,
          0., 0., 0., 0., 0., 0., 0., 0., 0., 0., 0., 0., 0., 0., 0., 0.,
          0., 0., 0., 0., 0., 0., 0., 0., 0., 0., 0., 0., 0., 0., 0., 0.,
          0., 0., 0., 0., 0., 0., 0., 0., 0., 0. ]
      - [ 0., 0., 0., 0., 0., 0., 0., 0., 7.16271912e+02, 7.91959610e+01,
          0., 4.42718887e+01, 224., 0., 0., 0., 0., 0., 0., 0., 0., 0.,
          0., 0., 0., 0., 0., 0., 0., 0., 0., 0., 0., 0., 0., 0., 0., 0.,
          0., 0., 0., 0., 0., 0., 0., 0., 0., 0., 0., 0., 0., 0., 0., 0.,
          0., 0., 0., 0., 0., 0., 0., 0., 0., 0. ]
      - [ 0., 0., 0., 0., 0., 0., 0., 0., 7.16271912e+02, 7.91959610e+01,
          0., 4.42718887e+01, 224., 0., 0., 0., 0., 0., 0., 0., 0., 0.,
          0., 0., 0., 0., 0., 0., 0., 0., 0., 0., 0., 0., 0., 0., 0., 0.,
          0., 0., 0., 0., 0., 0., 0., 0., 0., 0., 0., 0., 0., 0., 0., 0.,
          0., 0., 0., 0., 0., 0., 0., 0., 0., 0. ]
      - [ 0., 0., 0., 0., 0., 0., 0., 0., 7.16271912e+02, 7.91959610e+01,
          0., 4.42718887e+01, 224., 0., 0., 0., 0., 0., 0., 0., 0., 0.,
          0., 0., 0., 0., 0., 0., 0., 0., 0., 0., 0., 0., 0., 0., 0., 0.,
          0., 0., 0., 0., 0., 0., 0., 0., 0., 0., 0., 0., 0., 0., 0., 0.,
          0., 0., 0., 0., 0., 0., 0., 0., 0., 0. ]
      - [ 0., 0., 0., 0., 0., 0., 0., 0., 7.16271912e+02, 7.91959610e+01,
          0., 4.42718887e+01, 224., 0., 0., 0., 0., 0., 0., 0., 0., 0.,
          0., 0., 0., 0., 0., 0., 0., 0., 0., 0., 0., 0., 0., 0., 0., 0.,
          0., 0., 0., 0., 0., 0., 0., 0., 0., 0., 0., 0., 0., 0., 0., 0.,
          0., 0., 0., 0., 0., 0., 0., 0., 0., 0. ]
      - [ 0., 0., 0., 0., 0., 0., 0., 1.12207413e+02, 6.02263855e+02,
          7.92132034e+01, 0., 9.92809753e+01, 168., 0., 0., 0., 0., 0.,
          0., 0., 0., 0., 0., 0., 0., 0., 0., 0., 0., 0., 0., 0., 0., 0.,
          0., 0., 0., 0., 0., 0., 0., 0., 0., 0., 0., 0., 0., 0., 0., 0.,
          0., 0., 0., 0., 0., 0., 0., 0., 0., 0., 0., 0., 0., 0. ]
      - [ 0., 4.24264050e+00, 0., 0., 4., 0., 0., 5.30094337e+01,
          6.56290405e+02, 7.77817459e+01, 0., 4.42718887e+01,
          2.28171707e+02, 0., 4.24264050e+00, 0., 0., 0., 0., 0., 0., 0.,
          0., 0., 0., 0., 0., 0., 0., 0., 0., 0., 0., 0., 0., 0., 0., 0.,
          0., 0., 0., 0., 0., 0., 0., 0., 0., 0., 0., 0., 0., 0., 0., 0.,
          0., 0., 0., 0., 0., 0., 0., 0., 0., 0. ]
      - [ 0., 0., 0., 0., 0., 0., 0., 0., 7.16271912e+02, 7.91959610e+01,
          0., 4.42718887e+01, 224., 0., 0., 0., 0., 0., 0., 0., 0., 0.,
          0., 0., 0., 0., 0., 0., 0., 0., 0., 0., 0., 0., 0., 0., 0., 0.,
          0., 0., 0., 0., 0., 0., 0., 0., 0., 0., 0., 0., 0., 0., 0., 0.,
          0., 0., 0., 0., 0., 0., 0., 0., 0., 0. ]
      - [ 0., 0., 0., 0., 0., 0., 0., 0., 7.48444214e+02, 7.91959610e+01,
          0., 4.42718887e+01, 240., 0., 0., 0., 0., 0., 0., 0., 0., 0.,
          0., 0., 0., 0., 0., 0., 0., 0., 0., 0., 0., 0., 0., 0., 0., 0.,
          0., 0., 0., 0., 0., 0., 0., 0., 0., 0., 0., 0., 0., 0., 0., 0.,
          0., 0., 0., 0., 0., 0., 0., 0., 0., 0. ]
      - [ 5.16227770e+00, 7.30056286e+00, 8.94427204e+00, 0., 12., 0.,
          0., 6.03236267e+02, 2.50920990e+02, 2.54558449e+01,
          7.35527039e+01, 5.56596794e+01, 2.74072449e+02, 0., 0., 0., 0.,
          0., 0., 0., 0., 0., 0., 0., 0., 0., 0., 0., 0., 0., 0., 0., 0.,
          0., 0., 0., 0., 0., 0., 0., 0., 0., 0., 0., 0., 0., 0., 0., 0.,
          0., 0., 0., 0., 0., 0., 0., 0., 0., 0., 0., 0., 0., 0., 0. ]
      - [ 6., 4.25205917e+01, 8.60232544e+00, 0., 26., 0., 0.,
          7.76943237e+02, 2.39273300e+02, 1.41421354e+00, 1.24524429e+02,
          7.21248932e+01, 3.34538239e+02, 0., 0., 0., 0., 0., 0., 0., 0.,
          0., 0., 0., 0., 0., 0., 0., 0., 0., 0., 0., 0., 0., 0., 0., 0.,
          0., 0., 0., 0., 0., 0., 0., 0., 0., 0., 0., 0., 0., 0., 0., 0.,
          0., 0., 0., 0., 0., 0., 0., 0., 0., 0., 0. ]
      - [ 6.04212723e+01, 6.23548203e+01, 0., 0., 42., 0., 0.,
          9.63599060e+02, 2.58443359e+02, 4.10121918e+01, 1.08977058e+02,
          8.66833344e+01, 3.95251190e+02, 0., 0., 0., 0., 0., 0., 0., 0.,
          0., 0., 0., 0., 0., 0., 0., 0., 0., 0., 0., 0., 0., 0., 0., 0.,
          0., 0., 0., 0., 0., 0., 0., 0., 0., 0., 0., 0., 0., 0., 0., 0.,
          0., 0., 0., 0., 0., 0., 0., 0., 0., 0., 0. ]
      - [ 22., 1.64624023e+02, 0., 0., 104., 0., 0., 2.07401807e+03,
          5.56180298e+02, 3.35168610e+02, 0., 1.94180328e+02,
          9.04318542e+02, 0., 0., 0., 0., 0., 0., 0., 0., 0., 0., 0., 0.,
          0., 0., 0., 0., 0., 0., 0., 0., 0., 0., 0., 0., 0., 0., 0., 0.,
          0., 0., 0., 0., 0., 0., 0., 0., 0., 0., 0., 0., 0., 0., 0., 0.,
          0., 0., 0., 0., 0., 0., 0. ]
      - [ 28., 0., 2.22631775e+02, 0., 166., 0., 0., 3.20276611e+03,
          8.48108826e+02, 5.11947937e+02, 0., 2.95367554e+02,
          1.40092407e+03, 0., 0., 0., 0., 0., 0., 0., 0., 0., 0., 0., 0.,
          0., 0., 0., 0., 0., 0., 0., 0., 0., 0., 0., 0., 0., 0., 0., 0.,
          0., 0., 0., 0., 0., 0., 0., 0., 0., 0., 0., 0., 0., 0., 0., 0.,
          0., 0., 0., 0., 0., 0., 0. ]
      - [ 20., 2.68700581e+01, 5.22628708e+01, 4.36313782e+01, 116., 0.,
          0., 3.75836694e+03, 1.01896350e+03, 5.64292480e+02, 0.,
          1.11777649e+03, 800., 0., 0., 0., 0., 0., 0., 0., 0., 0., 0.,
          0., 0., 0., 0., 0., 0., 0., 0., 0., 0., 0., 0., 0., 0., 0., 0.,
          0., 0., 0., 0., 0., 0., 0., 0., 0., 0., 0., 0., 0., 0., 0., 0.,
          0., 0., 0., 0., 0., 0., 0., 0., 0. ]
      - [ 0., 0., 0., 0., 0., 0., 0., 0., 7.11102478e+02, 7.63852081e+01,
          0., 1.00443604e+02, 168., 0., 0., 0., 0., 0., 0., 0., 0., 0.,
          0., 0., 0., 0., 0., 0., 0., 0., 0., 0., 0., 0., 0., 0., 0., 0.,
          0., 0., 0., 0., 0., 0., 0., 0., 0., 0., 0., 0., 0., 0., 0., 0.,
          0., 0., 0., 0., 0., 0., 0., 0., 0., 0. ]
      - [ 3.16227770e+00, 1.41421354e+00, 0., 0., 0., 0., 0.,
          2.28088654e+02, 4.96360535e+02, 7.91959610e+01, 0.,
          4.42718887e+01, 224., 0., 1.41421354e+00, 3.16227770e+00, 0.,
          0., 0., 0., 0., 0., 0., 0., 0., 0., 0., 0., 0., 0., 0., 0., 0.,
          0., 0., 0., 0., 0., 0., 0., 0., 0., 0., 0., 0., 0., 0., 0., 0.,
          0., 0., 0., 0., 0., 0., 0., 0., 0., 0., 0., 0., 0., 0., 0. ]
      - [ 6., 3.01185875e+01, 10., 0., 26., 0., 0., 8.15446533e+02,
          2.21570099e+02, 1.25875565e+02, 0., 7.08378448e+01,
          3.47098572e+02, 0., 0., 0., 0., 0., 0., 0., 0., 0., 0., 0., 0.,
          0., 0., 0., 0., 0., 0., 0., 0., 0., 0., 0., 0., 0., 0., 0., 0.,
          0., 0., 0., 0., 0., 0., 0., 0., 0., 0., 0., 0., 0., 0., 0., 0.,
          0., 0., 0., 0., 0., 0., 0. ]
      - [ 1.32089722e+02, 7.15597687e+01, 0., 0., 58., 0., 0.,
          1.75259802e+03, 4.78751373e+02, 7.21248932e+01, 1.98035355e+02,
          1.54983871e+02, 7.15086914e+02, 0., 0., 0., 0., 0., 0., 0., 0.,
          0., 0., 0., 0., 0., 0., 0., 0., 0., 0., 0., 0., 0., 0., 0., 0.,
          0., 0., 0., 0., 0., 0., 0., 0., 0., 0., 0., 0., 0., 0., 0., 0.,
          0., 0., 0., 0., 0., 0., 0., 0., 0., 0., 0. ]
      - [ 34., 2.50544876e+02, 0., 0., 132., 0., 0., 3.87676978e+03,
          1.03489880e+03, 1.54149277e+02, 4.37012573e+02, 3.37120148e+02,
          1.60750195e+03, 0., 0., 0., 0., 0., 0., 0., 0., 0., 0., 0., 0.,
          0., 0., 0., 0., 0., 0., 0., 0., 0., 0., 0., 0., 0., 0., 0., 0.,
          0., 0., 0., 0., 0., 0., 0., 0., 0., 0., 0., 0., 0., 0., 0., 0.,
          0., 0., 0., 0., 0., 0., 0. ]
      - [ 32., 9.08839417e+01, 1.38893097e+02, 0., 160., 0., 0.,
          4.38706445e+03, 1.17907104e+03, 1.75362488e+02, 5.02047821e+02,
          3.85810822e+02, 1.86001233e+03, 0., 0., 0., 0., 0., 0., 0., 0.,
          0., 0., 0., 0., 0., 0., 0., 0., 0., 0., 0., 0., 0., 0., 0., 0.,
          0., 0., 0., 0., 0., 0., 0., 0., 0., 0., 0., 0., 0., 0., 0., 0.,
          0., 0., 0., 0., 0., 0., 0., 0., 0., 0., 0. ]
      - [ 0., 0., 0., 0., 3.25213440e+02, 0., 0., 4.49751758e+03,
          1.21317017e+03, 6.91598755e+02, 0., 1.37456714e+03, 988., 0.,
          0., 0., 0., 0., 0., 0., 0., 0., 0., 0., 0., 0., 0., 0., 0., 0.,
          0., 0., 0., 0., 0., 0., 0., 0., 0., 0., 0., 0., 0., 0., 0., 0.,
          0., 0., 0., 0., 0., 0., 0., 0., 0., 0., 0., 0., 0., 0., 0., 0.,
          0., 0. ]
      - [ 0., 0., 0., 0., 98., 5.68136482e+01, 6.94725571e+01,
          4.40653320e+03, 1.20839758e+03, 6.54813416e+02, 0.,
          1.30269922e+03, 944., 0., 0., 0., 0., 0., 0., 0., 0., 0., 0.,
          0., 0., 0., 0., 0., 0., 0., 0., 0., 0., 0., 0., 0., 0., 0., 0.,
          0., 0., 0., 0., 0., 0., 0., 0., 0., 0., 0., 0., 0., 0., 0., 0.,
          0., 0., 0., 0., 0., 0., 0., 0., 0. ]
      - [ 12., 0., 1.62180977e+01, 0., 12., 0., 0., 1.71578171e+02,
          5.64655884e+02, 2.26274166e+01, 6.65281906e+01, 4.74341660e+01,
          2.41137375e+02, 0., 4.24264050e+00, 0., 0., 0., 0., 0., 0., 0.,
          0., 0., 0., 0., 0., 0., 0., 0., 0., 0., 0., 0., 0., 0., 0., 0.,
          0., 0., 0., 0., 0., 0., 0., 0., 0., 0., 0., 0., 0., 0., 0., 0.,
          0., 0., 0., 0., 0., 0., 0., 0., 0., 0. ]
      - [ 0., 1.41421354e+00, 4.47213602e+00, 2.04117355e+01, 24., 0.,
          0., 4.84150574e+02, 2.85747345e+02, 9.75946045e+01, 0.,
          5.69209976e+01, 2.81007690e+02, 0., 0., 0., 0., 0., 0., 0., 0.,
          0., 0., 0., 0., 0., 0., 0., 0., 0., 0., 0., 0., 0., 0., 0., 0.,
          0., 0., 0., 0., 0., 0., 0., 0., 0., 0., 0., 0., 0., 0., 0., 0.,
          0., 0., 0., 0., 0., 0., 0., 0., 0., 0., 0. ]
      - [ 0., 0., 0., 0., 120., 0., 0., 5.58470947e+02, 3.01923431e+02,
          1.23137535e+02, 0., 7.46324310e+01, 352., 0., 0., 0., 0., 0.,
          0., 0., 0., 0., 0., 0., 0., 0., 0., 0., 0., 0., 0., 0., 0., 0.,
          0., 0., 0., 0., 0., 0., 0., 0., 0., 0., 0., 0., 0., 0., 0., 0.,
          0., 0., 0., 0., 0., 0., 0., 0., 0., 0., 0., 0., 0., 0. ]
      - [ 4., 4.47213602e+00, 8.94427204e+00, 6.33615150e+01, 68., 0.,
          0., 7.49724365e+02, 2.08279999e+02, 1.40166367e+02, 0.,
          8.72811584e+01, 3.84227570e+02, 0., 0., 0., 0., 0., 0., 0., 0.,
          0., 0., 0., 0., 0., 0., 0., 0., 0., 0., 0., 0., 0., 0., 0., 0.,
          0., 0., 0., 0., 0., 0., 0., 0., 0., 0., 0., 0., 0., 0., 0., 0.,
          0., 0., 0., 0., 0., 0., 0., 0., 0., 0., 0. ]
      - [ 5.23058929e+01, 1.05133209e+02, 4.16173058e+01, 0., 102., 0.,
          0., 1.62541455e+03, 4.46145508e+02, 2.72988342e+02, 0.,
          1.61913559e+02, 7.39788574e+02, 0., 0., 0., 0., 0., 0., 0., 0.,
          0., 0., 0., 0., 0., 0., 0., 0., 0., 0., 0., 0., 0., 0., 0., 0.,
          0., 0., 0., 0., 0., 0., 0., 0., 0., 0., 0., 0., 0., 0., 0., 0.,
          0., 0., 0., 0., 0., 0., 0., 0., 0., 0., 0. ]
      - [ 1.52986542e+02, 8.81033783e+01, 0., 0., 76., 0., 0.,
          2.24902783e+03, 6.16924377e+02, 9.33380966e+01, 2.55988281e+02,
          2.02410477e+02, 9.30153076e+02, 0., 0., 0., 0., 0., 0., 0., 0.,
          0., 0., 0., 0., 0., 0., 0., 0., 0., 0., 0., 0., 0., 0., 0., 0.,
          0., 0., 0., 0., 0., 0., 0., 0., 0., 0., 0., 0., 0., 0., 0., 0.,
          0., 0., 0., 0., 0., 0., 0., 0., 0., 0., 0. ]
      - [ 1.46138733e+02, 7.46875763e+01, 0., 0., 74., 0., 0.,
          2.87417285e+03, 7.85935486e+02, 1.13137085e+02, 3.16786987e+02,
          2.46677933e+02, 1.16920642e+03, 0., 0., 0., 0., 0., 0., 0., 0.,
          0., 0., 0., 0., 0., 0., 0., 0., 0., 0., 0., 0., 0., 0., 0., 0.,
          0., 0., 0., 0., 0., 0., 0., 0., 0., 0., 0., 0., 0., 0., 0., 0.,
          0., 0., 0., 0., 0., 0., 0., 0., 0., 0., 0. ]
      - [ 9.18539429e+01, 1.10625076e+02, 0., 0., 66., 0., 0.,
          3.20719824e+03, 3.60928979e+03, 1.86676193e+02, 5.60207092e+02,
          4.11108246e+02, 2.08400928e+03, 0., 5.07740097e+01,
          4.58911743e+01, 0., 0., 0., 0., 0., 0., 0., 0., 0., 0., 0., 0.,
          0., 0., 0., 0., 0., 0., 0., 0., 0., 0., 0., 0., 0., 0., 0., 0.,
          0., 0., 0., 0., 0., 0., 0., 0., 0., 0., 0., 0., 0., 0., 0., 0.,
          0., 0., 0., 0. ]
      - [ 0., 0., 0., 0., 66., 3.60555115e+01, 3.39411240e+01,
          3.25457397e+03, 3.61974512e+03, 2.09495850e+02, 6.06793579e+02,
          1.46923682e+03, 1124., 0., 0., 0., 0., 0., 0., 0., 0., 0., 0.,
          0., 0., 0., 0., 0., 0., 0., 0., 0., 0., 0., 0., 0., 0., 0., 0.,
          0., 0., 0., 0., 0., 0., 0., 0., 0., 0., 0., 0., 0., 0., 0., 0.,
          0., 0., 0., 0., 0., 0., 0., 0., 0. ]
      - [ 0., 0., 0., 0., 32., 0., 0., 2.51196899e+03, 3.75469775e+03,
          7.04844910e+02, 0., 1.31222607e+03, 1006., 0., 0., 0., 0., 0.,
          0., 0., 0., 0., 0., 0., 0., 0., 0., 0., 0., 0., 0., 0., 0., 0.,
          0., 0., 0., 0., 0., 0., 0., 0., 0., 0., 0., 0., 0., 0., 0., 0.,
          0., 0., 0., 0., 0., 0., 0., 0., 0., 0., 0., 0., 0., 0. ]
      - [ 12., 1.71446609e+01, 0., 0., 10., 0., 1.41421354e+00,
          2.33278412e+02, 5.06515106e+02, 6.64680405e+01, 2.40831890e+01,
          5.12445107e+01, 2.39243744e+02, 0., 0., 0., 0., 0., 0., 0., 0.,
          0., 0., 0., 0., 0., 0., 0., 0., 0., 0., 0., 0., 0., 0., 0., 0.,
          0., 0., 0., 0., 0., 0., 0., 0., 0., 0., 0., 0., 0., 0., 0., 0.,
          0., 0., 0., 0., 0., 0., 0., 0., 0., 0., 0. ]
      - [ 5.37149200e+01, 3.84798050e+01, 0., 0., 30., 0., 0.,
          6.53521240e+02, 2.05068466e+02, 1.41421354e+00, 1.09041656e+02,
          6.26418381e+01, 2.85101196e+02, 0., 0., 0., 0., 0., 0., 0., 0.,
          0., 0., 0., 0., 0., 0., 0., 0., 0., 0., 0., 0., 0., 0., 0., 0.,
          0., 0., 0., 0., 0., 0., 0., 0., 0., 0., 0., 0., 0., 0., 0., 0.,
          0., 0., 0., 0., 0., 0., 0., 0., 0., 0., 0. ]
      - [ 6., 0., 0., 1.52291138e+02, 148., 0., 0., 1.54983936e+03,
          3.81264862e+02, 2.64478271e+02, 0., 5.25794678e+02, 374., 0.,
          0., 0., 0., 0., 0., 0., 0., 0., 0., 0., 0., 0., 0., 0., 0., 0.,
          0., 0., 0., 0., 0., 0., 0., 0., 0., 0., 0., 0., 0., 0., 0., 0.,
          0., 0., 0., 0., 0., 0., 0., 0., 0., 0., 0., 0., 0., 0., 0., 0.,
          0., 0. ]
      - [ 12., 0., 5.50553322e+01, 5.69353981e+01, 1.65018509e+02, 0.,
          0., 3.00022266e+03, 7.91421875e+02, 4.63965942e+02, 0.,
          9.23017395e+02, 660., 0., 0., 0., 0., 0., 0., 0., 0., 0., 0.,
          0., 0., 0., 0., 0., 0., 0., 0., 0., 0., 0., 0., 0., 0., 0., 0.,
          0., 0., 0., 0., 0., 0., 0., 0., 0., 0., 0., 0., 0., 0., 0., 0.,
          0., 0., 0., 0., 0., 0., 0., 0., 0. ]
      - [ 12., 0., 8.99501724e+01, 0., 78., 0., 0., 3.29032153e+03,
          9.04178528e+02, 4.96388977e+02, 0., 2.80178528e+02,
          1.38609863e+03, 0., 0., 0., 0., 0., 0., 0., 0., 0., 0., 0., 0.,
          0., 0., 0., 0., 0., 0., 0., 0., 0., 0., 0., 0., 0., 0., 0., 0.,
          0., 0., 0., 0., 0., 0., 0., 0., 0., 0., 0., 0., 0., 0., 0., 0.,
          0., 0., 0., 0., 0., 0., 0. ]
      - [ 16., 0., 0., 0., 0., 0., 0., 0., 4.87625391e+03,
          5.26089966e+02, 5.83095169e+00, 3.00416382e+02, 1.51800269e+03,
          8.60232544e+00, 1.69705620e+01, 0., 0., 0., 0., 0., 0., 0., 0.,
          0., 0., 0., 0., 0., 0., 0., 0., 0., 0., 0., 0., 0., 0., 0., 0.,
          0., 0., 0., 0., 0., 0., 0., 0., 0., 0., 0., 0., 0., 0., 0., 0.,
          0., 0., 0., 0., 0., 0., 0., 0., 0. ]
      - [ 18., 0., 0., 0., 0., 0., 0., 0., 5.28488037e+03,
          1.35764496e+02, 4.11575012e+02, 3.02314392e+02, 1.62411597e+03,
          7.52181015e+01, 4.80832596e+01, 0., 0., 0., 0., 0., 0., 0., 0.,
          0., 0., 0., 0., 0., 0., 0., 0., 0., 0., 0., 0., 0., 0., 0., 0.,
          0., 0., 0., 0., 0., 0., 0., 0., 0., 0., 0., 0., 0., 0., 0., 0.,
          0., 0., 0., 0., 0., 0., 0., 0., 0. ]
      - [ 16., 0., 0., 0., 0., 0., 0., 0., 5.70499756e+03,
          1.42835571e+02, 4.37012573e+02, 3.19390045e+02, 1.86474780e+03,
          3.36154709e+01, 0., 0., 0., 0., 0., 0., 0., 0., 0., 0., 0., 0.,
          0., 0., 0., 0., 0., 0., 0., 0., 0., 0., 0., 0., 0., 0., 0., 0.,
          0., 0., 0., 0., 0., 0., 0., 0., 0., 0., 0., 0., 0., 0., 0., 0.,
          0., 0., 0., 0., 0., 0. ]
      - [ 0., 0., 0., 0., 0., 0., 0., 0., 5.63674219e+03, 1.34350296e+02,
          6.29759644e+02, 1.09114941e+03, 986., 0., 0., 0., 0., 0., 0.,
          0., 0., 0., 0., 0., 0., 0., 0., 0., 0., 0., 0., 0., 0., 0., 0.,
          0., 0., 0., 0., 0., 0., 0., 0., 0., 0., 0., 0., 0., 0., 0., 0.,
          0., 0., 0., 0., 0., 0., 0., 0., 0., 0., 0., 0., 0. ]
      - [ 0., 0., 0., 0., 0., 0., 0., 0., 5.10264258e+03, 5.43058044e+02,
          1.68459564e+02, 9.99670898e+02, 892., 0., 0., 0., 0., 0., 0.,
          0., 0., 0., 0., 0., 0., 0., 0., 0., 0., 0., 0., 0., 0., 0., 0.,
          0., 0., 0., 0., 0., 0., 0., 0., 0., 0., 0., 0., 0., 0., 0., 0.,
          0., 0., 0., 0., 0., 0., 0., 0., 0., 0., 0., 0., 0. ]
      - [ 2., 1.41421354e+00, 0., 0., 2., 0., 0., 0., 7.67434143e+02,
          8.48528137e+01, 0., 4.74341660e+01, 2.38084686e+02, 0.,
          1.41421354e+00, 3.16227770e+00, 0., 0., 0., 0., 0., 0., 0., 0.,
          0., 0., 0., 0., 0., 0., 0., 0., 0., 0., 0., 0., 0., 0., 0., 0.,
          0., 0., 0., 0., 0., 0., 0., 0., 0., 0., 0., 0., 0., 0., 0., 0.,
          0., 0., 0., 0., 0., 0., 0., 0. ]
      - [ 24., 0., 0., 0., 0., 0., 0., 0., 7.94596436e+02,
          2.26274166e+01, 6.50691910e+01, 4.93355865e+01, 2.42081924e+02,
          0., 0., 0., 0., 0., 0., 0., 0., 0., 0., 0., 0., 0., 0., 0., 0.,
          0., 0., 0., 0., 0., 0., 0., 0., 0., 0., 0., 0., 0., 0., 0., 0.,
          0., 0., 0., 0., 0., 0., 0., 0., 0., 0., 0., 0., 0., 0., 0., 0.,
          0., 0., 0. ]
      - [ 1.66284546e+02, 0., 0., 0., 8., 0., 0., 4.40129791e+02,
          5.81572449e+02, 1.41421354e+00, 1.16295326e+02, 6.64830780e+01,
          2.92891541e+02, 0., 0., 0., 0., 0., 0., 0., 0., 0., 0., 0., 0.,
          0., 0., 0., 0., 0., 0., 0., 0., 0., 0., 0., 0., 0., 0., 0., 0.,
          0., 0., 0., 0., 0., 0., 0., 0., 0., 0., 0., 0., 0., 0., 0., 0.,
          0., 0., 0., 0., 0., 0., 0. ]
      - [ 1.19392235e+02, 4.70237961e+01, 0., 0., 36., 0., 0.,
          1.13484802e+03, 3.55386902e+02, 1.41421354e+00, 1.84055328e+02,
          1.06320274e+02, 4.69353424e+02, 0., 0., 0., 0., 0., 0., 0., 0.,
          0., 0., 0., 0., 0., 0., 0., 0., 0., 0., 0., 0., 0., 0., 0., 0.,
          0., 0., 0., 0., 0., 0., 0., 0., 0., 0., 0., 0., 0., 0., 0., 0.,
          0., 0., 0., 0., 0., 0., 0., 0., 0., 0., 0. ]
      - [ 24., 1.68930115e+02, 0., 0., 96., 0., 0., 1.89782397e+03,
          5.11627380e+02, 8.20243835e+01, 2.26278595e+02, 1.78370407e+02,
          8.25554993e+02, 0., 0., 0., 0., 0., 0., 0., 0., 0., 0., 0., 0.,
          0., 0., 0., 0., 0., 0., 0., 0., 0., 0., 0., 0., 0., 0., 0., 0.,
          0., 0., 0., 0., 0., 0., 0., 0., 0., 0., 0., 0., 0., 0., 0., 0.,
          0., 0., 0., 0., 0., 0., 0. ]
      - [ 24., 1.94144684e+02, 0., 0., 126., 0., 0., 2.29211353e+03,
          6.10314575e+02, 3.73352356e+02, 0., 2.16314590e+02,
          1.00927979e+03, 0., 0., 0., 0., 0., 0., 0., 0., 0., 0., 0., 0.,
          0., 0., 0., 0., 0., 0., 0., 0., 0., 0., 0., 0., 0., 0., 0., 0.,
          0., 0., 0., 0., 0., 0., 0., 0., 0., 0., 0., 0., 0., 0., 0., 0.,
          0., 0., 0., 0., 0., 0., 0. ]
      - [ 10., 0., 0., 2.11917023e+02, 206., 0., 0., 4.01878979e+03,
          1.06767566e+03, 6.44914795e+02, 0., 3.68722107e+02,
          1.80610107e+03, 0., 0., 0., 0., 0., 0., 0., 0., 0., 0., 0., 0.,
          0., 0., 0., 0., 0., 0., 0., 0., 0., 0., 0., 0., 0., 0., 0., 0.,
          0., 0., 0., 0., 0., 0., 0., 0., 0., 0., 0., 0., 0., 0., 0., 0.,
          0., 0., 0., 0., 0., 0., 0. ]
      - [ 0., 0., 0., 0., 2.22525360e+02, 1.62167084e+02, 0.,
          3.97085693e+03, 1.05963806e+03, 6.21053955e+02, 0.,
          1.24597314e+03, 908., 0., 0., 0., 0., 0., 0., 0., 0., 0., 0.,
          0., 0., 0., 0., 0., 0., 0., 0., 0., 0., 0., 0., 0., 0., 0., 0.,
          0., 0., 0., 0., 0., 0., 0., 0., 0., 0., 0., 0., 0., 0., 0., 0.,
          0., 0., 0., 0., 0., 0., 0., 0., 0. ]
      - [ 0., 0., 0., 0., 74., 0., 1.16221138e+02, 3.73123096e+03,
          1.03043298e+03, 5.47456665e+02, 0., 1.10022583e+03, 804., 0.,
          0., 0., 0., 0., 0., 0., 0., 0., 0., 0., 0., 0., 0., 0., 0., 0.,
          0., 0., 0., 0., 0., 0., 0., 0., 0., 0., 0., 0., 0., 0., 0., 0.,
          0., 0., 0., 0., 0., 0., 0., 0., 0., 0., 0., 0., 0., 0., 0., 0.,
          0., 0. ]
      - [ 0., 0., 0., 0., 0., 0., 0., 0., 4.26942041e+03, 5.66521790e+02,
          2.83196049e+01, 8.67123169e+02, 728., 0., 0., 0., 0., 0., 0.,
          0., 0., 0., 0., 0., 0., 0., 0., 0., 0., 0., 0., 0., 0., 0., 0.,
          0., 0., 0., 0., 0., 0., 0., 0., 0., 0., 0., 0., 0., 0., 0., 0.,
          0., 0., 0., 0., 0., 0., 0., 0., 0., 0., 0., 0., 0. ]
      - [ 0., 0., 0., 0., 0., 0., 0., 0., 7.16271912e+02, 7.91959610e+01,
          0., 4.42718887e+01, 224., 0., 0., 0., 0., 0., 0., 0., 0., 0.,
          0., 0., 0., 0., 0., 0., 0., 0., 0., 0., 0., 0., 0., 0., 0., 0.,
          0., 0., 0., 0., 0., 0., 0., 0., 0., 0., 0., 0., 0., 0., 0., 0.,
          0., 0., 0., 0., 0., 0., 0., 0., 0., 0. ]
      - [ 0., 0., 0., 0., 0., 0., 0., 0., 7.16271912e+02, 7.91959610e+01,
          0., 4.42718887e+01, 224., 0., 0., 0., 0., 0., 0., 0., 0., 0.,
          0., 0., 0., 0., 0., 0., 0., 0., 0., 0., 0., 0., 0., 0., 0., 0.,
          0., 0., 0., 0., 0., 0., 0., 0., 0., 0., 0., 0., 0., 0., 0., 0.,
          0., 0., 0., 0., 0., 0., 0., 0., 0., 0. ]
      - [ 0., 0., 0., 0., 0., 0., 0., 0., 7.16271912e+02, 7.91959610e+01,
          0., 4.42718887e+01, 224., 0., 0., 0., 0., 0., 0., 0., 0., 0.,
          0., 0., 0., 0., 0., 0., 0., 0., 0., 0., 0., 0., 0., 0., 0., 0.,
          0., 0., 0., 0., 0., 0., 0., 0., 0., 0., 0., 0., 0., 0., 0., 0.,
          0., 0., 0., 0., 0., 0., 0., 0., 0., 0. ]
      - [ 0., 0., 0., 0., 0., 0., 0., 0., 7.16271912e+02, 7.91959610e+01,
          0., 4.42718887e+01, 224., 0., 0., 0., 0., 0., 0., 0., 0., 0.,
          0., 0., 0., 0., 0., 0., 0., 0., 0., 0., 0., 0., 0., 0., 0., 0.,
          0., 0., 0., 0., 0., 0., 0., 0., 0., 0., 0., 0., 0., 0., 0., 0.,
          0., 0., 0., 0., 0., 0., 0., 0., 0., 0. ]
      - [ 0., 0., 0., 0., 0., 0., 0., 0., 7.16271912e+02, 7.91959610e+01,
          0., 4.42718887e+01, 224., 0., 0., 0., 0., 0., 0., 0., 0., 0.,
          0., 0., 0., 0., 0., 0., 0., 0., 0., 0., 0., 0., 0., 0., 0., 0.,
          0., 0., 0., 0., 0., 0., 0., 0., 0., 0., 0., 0., 0., 0., 0., 0.,
          0., 0., 0., 0., 0., 0., 0., 0., 0., 0. ]
      - [ 0., 0., 0., 0., 0., 0., 0., 0., 7.16271912e+02, 7.91959610e+01,
          0., 4.42718887e+01, 224., 0., 0., 0., 0., 0., 0., 0., 0., 0.,
          0., 0., 0., 0., 0., 0., 0., 0., 0., 0., 0., 0., 0., 0., 0., 0.,
          0., 0., 0., 0., 0., 0., 0., 0., 0., 0., 0., 0., 0., 0., 0., 0.,
          0., 0., 0., 0., 0., 0., 0., 0., 0., 0. ]
      - [ 0., 0., 0., 0., 0., 0., 0., 0., 7.16271912e+02, 7.91959610e+01,
          0., 4.42718887e+01, 224., 0., 0., 0., 0., 0., 0., 0., 0., 0.,
          0., 0., 0., 0., 0., 0., 0., 0., 0., 0., 0., 0., 0., 0., 0., 0.,
          0., 0., 0., 0., 0., 0., 0., 0., 0., 0., 0., 0., 0., 0., 0., 0.,
          0., 0., 0., 0., 0., 0., 0., 0., 0., 0. ]
      - [ 0., 0., 0., 0., 0., 0., 0., 0., 7.16271912e+02, 7.91959610e+01,
          0., 4.42718887e+01, 224., 0., 0., 0., 0., 0., 0., 0., 0., 0.,
          0., 0., 0., 0., 0., 0., 0., 0., 0., 0., 0., 0., 0., 0., 0., 0.,
          0., 0., 0., 0., 0., 0., 0., 0., 0., 0., 0., 0., 0., 0., 0., 0.,
          0., 0., 0., 0., 0., 0., 0., 0., 0., 0. ]
      - [ 0., 0., 0., 0., 0., 0., 0., 0., 7.16271912e+02, 7.91959610e+01,
          0., 4.42718887e+01, 224., 0., 0., 0., 0., 0., 0., 0., 0., 0.,
          0., 0., 0., 0., 0., 0., 0., 0., 0., 0., 0., 0., 0., 0., 0., 0.,
          0., 0., 0., 0., 0., 0., 0., 0., 0., 0., 0., 0., 0., 0., 0., 0.,
          0., 0., 0., 0., 0., 0., 0., 0., 0., 0. ]
      - [ 0., 0., 0., 0., 0., 0., 0., 0., 7.16271912e+02, 7.91959610e+01,
          0., 4.42718887e+01, 224., 0., 0., 0., 0., 0., 0., 0., 0., 0.,
          0., 0., 0., 0., 0., 0., 0., 0., 0., 0., 0., 0., 0., 0., 0., 0.,
          0., 0., 0., 0., 0., 0., 0., 0., 0., 0., 0., 0., 0., 0., 0., 0.,
          0., 0., 0., 0., 0., 0., 0., 0., 0., 0. ]
      - [ 0., 0., 0., 0., 0., 0., 0., 0., 7.16271912e+02, 7.91959610e+01,
          0., 4.42718887e+01, 224., 0., 0., 0., 0., 0., 0., 0., 0., 0.,
          0., 0., 0., 0., 0., 0., 0., 0., 0., 0., 0., 0., 0., 0., 0., 0.,
          0., 0., 0., 0., 0., 0., 0., 0., 0., 0., 0., 0., 0., 0., 0., 0.,
          0., 0., 0., 0., 0., 0., 0., 0., 0., 0. ]
      - [ 0., 0., 0., 0., 0., 0., 0., 0., 7.16271912e+02, 7.91959610e+01,
          0., 4.42718887e+01, 224., 0., 0., 0., 0., 0., 0., 0., 0., 0.,
          0., 0., 0., 0., 0., 0., 0., 0., 0., 0., 0., 0., 0., 0., 0., 0.,
          0., 0., 0., 0., 0., 0., 0., 0., 0., 0., 0., 0., 0., 0., 0., 0.,
          0., 0., 0., 0., 0., 0., 0., 0., 0., 0. ]
      - [ 0., 0., 0., 0., 0., 0., 0., 0., 7.16271912e+02, 7.91959610e+01,
          0., 4.42718887e+01, 224., 0., 0., 0., 0., 0., 0., 0., 0., 0.,
          0., 0., 0., 0., 0., 0., 0., 0., 0., 0., 0., 0., 0., 0., 0., 0.,
          0., 0., 0., 0., 0., 0., 0., 0., 0., 0., 0., 0., 0., 0., 0., 0.,
          0., 0., 0., 0., 0., 0., 0., 0., 0., 0. ]
      - [ 0., 0., 0., 0., 0., 0., 0., 0., 7.16271912e+02, 7.91959610e+01,
          0., 4.42718887e+01, 224., 0., 0., 0., 0., 0., 0., 0., 0., 0.,
          0., 0., 0., 0., 0., 0., 0., 0., 0., 0., 0., 0., 0., 0., 0., 0.,
          0., 0., 0., 0., 0., 0., 0., 0., 0., 0., 0., 0., 0., 0., 0., 0.,
          0., 0., 0., 0., 0., 0., 0., 0., 0., 0. ]
      - [ 0., 0., 0., 0., 0., 0., 0., 0., 7.16271912e+02, 7.91959610e+01,
          0., 4.42718887e+01, 224., 0., 0., 0., 0., 0., 0., 0., 0., 0.,
          0., 0., 0., 0., 0., 0., 0., 0., 0., 0., 0., 0., 0., 0., 0., 0.,
          0., 0., 0., 0., 0., 0., 0., 0., 0., 0., 0., 0., 0., 0., 0., 0.,
          0., 0., 0., 0., 0., 0., 0., 0., 0., 0. ]
      - [ 0., 0., 0., 0., 0., 0., 0., 0., 7.16271912e+02, 7.91959610e+01,
          0., 4.42718887e+01, 224., 0., 0., 0., 0., 0., 0., 0., 0., 0.,
          0., 0., 0., 0., 0., 0., 0., 0., 0., 0., 0., 0., 0., 0., 0., 0.,
          0., 0., 0., 0., 0., 0., 0., 0., 0., 0., 0., 0., 0., 0., 0., 0.,
          0., 0., 0., 0., 0., 0., 0., 0., 0., 0. ]
      - [ 0., 0., 0., 0., 0., 0., 0., 0., 7.16271912e+02, 7.91959610e+01,
          0., 4.42718887e+01, 224., 0., 0., 0., 0., 0., 0., 0., 0., 0.,
          0., 0., 0., 0., 0., 0., 0., 0., 0., 0., 0., 0., 0., 0., 0., 0.,
          0., 0., 0., 0., 0., 0., 0., 0., 0., 0., 0., 0., 0., 0., 0., 0.,
          0., 0., 0., 0., 0., 0., 0., 0., 0., 0. ]
      - [ 0., 0., 0., 0., 0., 0., 0., 0., 7.16271912e+02, 7.91959610e+01,
          0., 4.42718887e+01, 224., 0., 0., 0., 0., 0., 0., 0., 0., 0.,
          0., 0., 0., 0., 0., 0., 0., 0., 0., 0., 0., 0., 0., 0., 0., 0.,
          0., 0., 0., 0., 0., 0., 0., 0., 0., 0., 0., 0., 0., 0., 0., 0.,
          0., 0., 0., 0., 0., 0., 0., 0., 0., 0. ]
      - [ 0., 0., 0., 0., 0., 0., 0., 0., 7.16271912e+02, 7.91959610e+01,
          0., 4.42718887e+01, 224., 0., 0., 0., 0., 0., 0., 0., 0., 0.,
          0., 0., 0., 0., 0., 0., 0., 0., 0., 0., 0., 0., 0., 0., 0., 0.,
          0., 0., 0., 0., 0., 0., 0., 0., 0., 0., 0., 0., 0., 0., 0., 0.,
          0., 0., 0., 0., 0., 0., 0., 0., 0., 0. ]
      - [ 0., 0., 0., 0., 0., 0., 0., 0., 7.16271912e+02, 7.91959610e+01,
          0., 4.42718887e+01, 224., 0., 0., 0., 0., 0., 0., 0., 0., 0.,
          0., 0., 0., 0., 0., 0., 0., 0., 0., 0., 0., 0., 0., 0., 0., 0.,
          0., 0., 0., 0., 0., 0., 0., 0., 0., 0., 0., 0., 0., 0., 0., 0.,
          0., 0., 0., 0., 0., 0., 0., 0., 0., 0. ]
      - [ 4., 0., 0., 0., 14., 4.47213602e+00, 1.41421354e+00,
          2.92135559e+02, 4.47434174e+02, 8.48528137e+01, 0.,
          4.74341660e+01, 240., 0., 0., 0., 0., 0., 0., 0., 0., 0., 0.,
          0., 0., 0., 0., 0., 0., 0., 0., 0., 0., 0., 0., 0., 0., 0., 0.,
          0., 0., 0., 0., 0., 0., 0., 0., 0., 0., 0., 0., 0., 0., 0., 0.,
          0., 0., 0., 0., 0., 0., 0., 0., 0. ]
      - [ 1.11622772e+01, 0., 0., 0., 2., 0., 0., 0., 7.67434143e+02,
          8.48528137e+01, 0., 4.74341660e+01, 2.41008469e+02, 0.,
          1.41421354e+00, 3.16227770e+00, 0., 0., 0., 0., 0., 0., 0., 0.,
          0., 0., 0., 0., 0., 0., 0., 0., 0., 0., 0., 0., 0., 0., 0., 0.,
          0., 0., 0., 0., 0., 0., 0., 0., 0., 0., 0., 0., 0., 0., 0., 0.,
          0., 0., 0., 0., 0., 0., 0., 0. ]
      - [ 4.30461617e+01, 2.95759010e+01, 0., 0., 18., 0., 0.,
          6.91805786e+02, 2.20949814e+02, 1.41421354e+00, 1.11804604e+02,
          6.58027344e+01, 2.93095642e+02, 0., 0., 0., 0., 0., 0., 0., 0.,
          0., 0., 0., 0., 0., 0., 0., 0., 0., 0., 0., 0., 0., 0., 0., 0.,
          0., 0., 0., 0., 0., 0., 0., 0., 0., 0., 0., 0., 0., 0., 0., 0.,
          0., 0., 0., 0., 0., 0., 0., 0., 0., 0., 0. ]
      - [ 1.27627602e+02, 2.54950981e+01, 0., 0., 42., 0., 0.,
          1.00364075e+03, 2.69605560e+02, 4.24264069e+01, 116.,
          9.10933609e+01, 4.08347717e+02, 0., 0., 0., 0., 0., 0., 0., 0.,
          0., 0., 0., 0., 0., 0., 0., 0., 0., 0., 0., 0., 0., 0., 0., 0.,
          0., 0., 0., 0., 0., 0., 0., 0., 0., 0., 0., 0., 0., 0., 0., 0.,
          0., 0., 0., 0., 0., 0., 0., 0., 0., 0., 0. ]
      - [ 1.43835907e+02, 3.04630928e+01, 0., 0., 42., 0., 0.,
          1.47333582e+03, 3.99552277e+02, 5.93969688e+01, 1.64103622e+02,
          1.27781059e+02, 5.88786255e+02, 0., 0., 0., 0., 0., 0., 0., 0.,
          0., 0., 0., 0., 0., 0., 0., 0., 0., 0., 0., 0., 0., 0., 0., 0.,
          0., 0., 0., 0., 0., 0., 0., 0., 0., 0., 0., 0., 0., 0., 0., 0.,
          0., 0., 0., 0., 0., 0., 0., 0., 0., 0., 0. ]
      - [ 1.42390411e+02, 7.51592865e+01, 0., 0., 50., 0., 0.,
          2.04427441e+03, 5.49823792e+02, 7.91959610e+01, 2.23486023e+02,
          1.72046509e+02, 8.03983276e+02, 0., 0., 0., 0., 0., 0., 0., 0.,
          0., 0., 0., 0., 0., 0., 0., 0., 0., 0., 0., 0., 0., 0., 0., 0.,
          0., 0., 0., 0., 0., 0., 0., 0., 0., 0., 0., 0., 0., 0., 0., 0.,
          0., 0., 0., 0., 0., 0., 0., 0., 0., 0., 0. ]
      - [ 10., 0., 1.65529461e+01, 1.24434738e+02, 138., 0., 0.,
          4.26194385e+03, 2.53711157e+03, 1.93747253e+02, 5.89742310e+02,
          4.33232025e+02, 2.22000903e+03, 1.20830460e+01, 0., 0., 0., 0.,
          0., 0., 0., 0., 0., 0., 0., 0., 0., 0., 0., 0., 0., 0., 0., 0.,
          0., 0., 0., 0., 0., 0., 0., 0., 0., 0., 0., 0., 0., 0., 0., 0.,
          0., 0., 0., 0., 0., 0., 0., 0., 0., 0., 0., 0., 0., 0. ]
      - [ 0., 0., 0., 0., 126., 9.17629395e+01, 4.10121918e+01,
          4.16770117e+03, 2.50394458e+03, 7.56619995e+02, 0.,
          1.50291968e+03, 1110., 0., 0., 0., 0., 0., 0., 0., 0., 0., 0.,
          0., 0., 0., 0., 0., 0., 0., 0., 0., 0., 0., 0., 0., 0., 0., 0.,
          0., 0., 0., 0., 0., 0., 0., 0., 0., 0., 0., 0., 0., 0., 0., 0.,
          0., 0., 0., 0., 0., 0., 0., 0., 0. ]
      - [ 0., 0., 0., 0., 0., 0., 0., 0., 7.16271912e+02, 7.91959610e+01,
          0., 4.42718887e+01, 224., 0., 0., 0., 0., 0., 0., 0., 0., 0.,
          0., 0., 0., 0., 0., 0., 0., 0., 0., 0., 0., 0., 0., 0., 0., 0.,
          0., 0., 0., 0., 0., 0., 0., 0., 0., 0., 0., 0., 0., 0., 0., 0.,
          0., 0., 0., 0., 0., 0., 0., 0., 0., 0. ]
      - [ 0., 0., 0., 0., 7.16227770e+00, 0., 0., 5.70087700e+01,
          6.60271912e+02, 8.06266174e+01, 0., 1.60585358e+02, 116., 0.,
          0., 0., 0., 0., 0., 0., 0., 0., 0., 0., 0., 0., 0., 0., 0., 0.,
          0., 0., 0., 0., 0., 0., 0., 0., 0., 0., 0., 0., 0., 0., 0., 0.,
          0., 0., 0., 0., 0., 0., 0., 0., 0., 0., 0., 0., 0., 0., 0., 0.,
          0., 0. ]
      - [ 2.01700878e+01, 4.24264050e+00, 5.83095169e+00, 0., 8., 0., 0.,
          5.24237061e+02, 3.40747009e+02, 1.41421354e+00, 9.91568146e+01,
          5.63205109e+01, 2.68293579e+02, 0., 0., 0., 0., 0., 0., 0., 0.,
          0., 0., 0., 0., 0., 0., 0., 0., 0., 0., 0., 0., 0., 0., 0., 0.,
          0., 0., 0., 0., 0., 0., 0., 0., 0., 0., 0., 0., 0., 0., 0., 0.,
          0., 0., 0., 0., 0., 0., 0., 0., 0., 0., 0. ]
      - [ 4., 1.27279224e+01, 3.44401588e+01, 0., 36., 0., 0.,
          5.96159485e+02, 3.98632568e+02, 1.27279221e+02, 0.,
          7.14702759e+01, 3.47166290e+02, 0., 0., 0., 0., 0., 0., 0., 0.,
          0., 0., 0., 0., 0., 0., 0., 0., 0., 0., 0., 0., 0., 0., 0., 0.,
          0., 0., 0., 0., 0., 0., 0., 0., 0., 0., 0., 0., 0., 0., 0., 0.,
          0., 0., 0., 0., 0., 0., 0., 0., 0., 0., 0. ]
      - [ 4., 0., 5.89018822e+01, 0., 50., 0., 0., 8.66029907e+02,
          2.25699432e+02, 1.40016830e+02, 0., 8.09567795e+01,
          3.87151489e+02, 0., 0., 0., 0., 0., 0., 0., 0., 0., 0., 0., 0.,
          0., 0., 0., 0., 0., 0., 0., 0., 0., 0., 0., 0., 0., 0., 0., 0.,
          0., 0., 0., 0., 0., 0., 0., 0., 0., 0., 0., 0., 0., 0., 0., 0.,
          0., 0., 0., 0., 0., 0., 0. ]
      - [ 8., 7.10479584e+01, 20., 0., 60., 0., 0., 1.03471326e+03,
          2.74671173e+02, 1.69705627e+02, 0., 9.86711731e+01,
          4.62395020e+02, 0., 0., 0., 0., 0., 0., 0., 0., 0., 0., 0., 0.,
          0., 0., 0., 0., 0., 0., 0., 0., 0., 0., 0., 0., 0., 0., 0., 0.,
          0., 0., 0., 0., 0., 0., 0., 0., 0., 0., 0., 0., 0., 0., 0., 0.,
          0., 0., 0., 0., 0., 0., 0. ]
      - [ 24., 1.11485413e+02, 0., 0., 54., 0., 0., 1.30125793e+03,
          3.53741089e+02, 2.02232529e+02, 0., 1.15741089e+02,
          5.45680786e+02, 0., 0., 0., 0., 0., 0., 0., 0., 0., 0., 0., 0.,
          0., 0., 0., 0., 0., 0., 0., 0., 0., 0., 0., 0., 0., 0., 0., 0.,
          0., 0., 0., 0., 0., 0., 0., 0., 0., 0., 0., 0., 0., 0., 0., 0.,
          0., 0., 0., 0., 0., 0., 0. ]
      - [ 36., 0., 0., 0., 0., 0., 0., 0., 3.93910254e+03,
          1.06066017e+02, 3.11242676e+02, 2.32124969e+02, 1.17191919e+03,
          0., 0., 1.68064224e+02, 0., 0., 0., 0., 0., 0., 0., 0., 0., 0.,
          0., 0., 0., 0., 0., 0., 0., 0., 0., 0., 0., 0., 0., 0., 0., 0.,
          0., 0., 0., 0., 0., 0., 0., 0., 0., 0., 0., 0., 0., 0., 0., 0.,
          0., 0., 0., 0., 0., 0. ]
      - [ 28., 0., 0., 0., 0., 0., 0., 0., 5.11160156e+03,
          1.30107651e+02, 3.91800964e+02, 2.88402496e+02, 1.54433960e+03,
          0., 1.64382751e+02, 0., 0., 0., 0., 0., 0., 0., 0., 0., 0., 0.,
          0., 0., 0., 0., 0., 0., 0., 0., 0., 0., 0., 0., 0., 0., 0., 0.,
          0., 0., 0., 0., 0., 0., 0., 0., 0., 0., 0., 0., 0., 0., 0., 0.,
          0., 0., 0., 0., 0., 0. ]
      - [ 0., 0., 0., 0., 0., 0., 0., 0., 6.03480615e+03, 1.45664001e+02,
          4.51189545e+02, 3.25714600e+02, 2.06438208e+03, 0., 0., 0., 0.,
          0., 0., 0., 0., 0., 0., 0., 0., 0., 0., 0., 0., 0., 0., 0., 0.,
          0., 0., 0., 0., 0., 0., 0., 0., 0., 0., 0., 0., 0., 0., 0., 0.,
          0., 0., 0., 0., 0., 0., 0., 0., 0., 0., 0., 0., 0., 0., 0. ]
      - [ 0., 0., 0., 0., 0., 0., 0., 0., 5.92029443e+03, 1.42835571e+02,
          5.69792847e+02, 1.22824060e+03, 1028., 0., 0., 0., 0., 0., 0.,
          0., 0., 0., 0., 0., 0., 0., 0., 0., 0., 0., 0., 0., 0., 0., 0.,
          0., 0., 0., 0., 0., 0., 0., 0., 0., 0., 0., 0., 0., 0., 0., 0.,
          0., 0., 0., 0., 0., 0., 0., 0., 0., 0., 0., 0., 0. ]
      - [ 0., 0., 0., 0., 0., 0., 0., 0., 5.50084375e+03, 1.41421356e+02,
          5.77546570e+02, 1.10514172e+03, 930., 0., 0., 0., 0., 0., 0.,
          0., 0., 0., 0., 0., 0., 0., 0., 0., 0., 0., 0., 0., 0., 0., 0.,
          0., 0., 0., 0., 0., 0., 0., 0., 0., 0., 0., 0., 0., 0., 0., 0.,
          0., 0., 0., 0., 0., 0., 0., 0., 0., 0., 0., 0., 0. ]
      - [ 0., 0., 0., 0., 3.20209595e+02, 0., 0., 2.39870654e+03,
          6.26638733e+02, 3.97478577e+02, 0., 7.91958862e+02, 564., 0.,
          0., 0., 0., 0., 0., 0., 0., 0., 0., 0., 0., 0., 0., 0., 0., 0.,
          0., 0., 0., 0., 0., 0., 0., 0., 0., 0., 0., 0., 0., 0., 0., 0.,
          0., 0., 0., 0., 0., 0., 0., 0., 0., 0., 0., 0., 0., 0., 0., 0.,
          0., 0. ]
      - [ 4., 0., 0., 0., 0., 0., 0., 0., 7.32444214e+02, 7.91959610e+01,
          0., 4.42718887e+01, 2.31162277e+02, 0., 4.24264050e+00, 0., 0.,
          0., 0., 0., 0., 0., 0., 0., 0., 0., 0., 0., 0., 0., 0., 0., 0.,
          0., 0., 0., 0., 0., 0., 0., 0., 0., 0., 0., 0., 0., 0., 0., 0.,
          0., 0., 0., 0., 0., 0., 0., 0., 0., 0., 0., 0., 0., 0., 0. ]
      - [ 0., 0., 0., 0., 0., 0., 0., 0., 7.32444214e+02, 7.91959610e+01,
          0., 4.42718887e+01, 240., 0., 0., 0., 0., 0., 0., 0., 0., 0.,
          0., 0., 0., 0., 0., 0., 0., 0., 0., 0., 0., 0., 0., 0., 0., 0.,
          0., 0., 0., 0., 0., 0., 0., 0., 0., 0., 0., 0., 0., 0., 0., 0.,
          0., 0., 0., 0., 0., 0., 0., 0., 0., 0. ]
      - [ 7.16227770e+00, 1.45457287e+01, 4.47213602e+00, 0., 12., 0.,
          1.41421354e+00, 3.61565063e+02, 4.18698822e+02, 9.33380890e+01,
          0., 5.24976196e+01, 2.51229340e+02, 0., 0., 0., 0., 0., 0., 0.,
          0., 0., 0., 0., 0., 0., 0., 0., 0., 0., 0., 0., 0., 0., 0., 0.,
          0., 0., 0., 0., 0., 0., 0., 0., 0., 0., 0., 0., 0., 0., 0., 0.,
          0., 0., 0., 0., 0., 0., 0., 0., 0., 0., 0., 0. ]
      - [ 2.39283886e+01, 5.94708519e+01, 0., 0., 36., 0., 0.,
          9.40130615e+02, 2.52118958e+02, 3.81837654e+01, 1.07489532e+02,
          8.28613281e+01, 3.94452789e+02, 0., 0., 0., 0., 0., 0., 0., 0.,
          0., 0., 0., 0., 0., 0., 0., 0., 0., 0., 0., 0., 0., 0., 0., 0.,
          0., 0., 0., 0., 0., 0., 0., 0., 0., 0., 0., 0., 0., 0., 0., 0.,
          0., 0., 0., 0., 0., 0., 0., 0., 0., 0., 0. ]
      - [ 3.57200470e+01, 4.96480255e+01, 1.44222050e+01, 0., 50., 0.,
          0., 1.94944080e+03, 5.37174744e+02, 2.91332581e+02, 0.,
          1.64438431e+02, 8.15041992e+02, 0., 0., 0., 0., 0., 0., 0., 0.,
          0., 0., 0., 0., 0., 0., 0., 0., 0., 0., 0., 0., 0., 0., 0., 0.,
          0., 0., 0., 0., 0., 0., 0., 0., 0., 0., 0., 0., 0., 0., 0., 0.,
          0., 0., 0., 0., 0., 0., 0., 0., 0., 0., 0. ]
      - [ 0., 0., 0., 0., 0., 0., 0., 0., 2.93146069e+03, 6.78822479e+01,
          2.10722565e+02, 6.84127808e+02, 530., 0., 0., 0., 0., 0., 0.,
          0., 0., 0., 0., 0., 0., 0., 0., 0., 0., 0., 0., 0., 0., 0., 0.,
          0., 0., 0., 0., 0., 0., 0., 0., 0., 0., 0., 0., 0., 0., 0., 0.,
          0., 0., 0., 0., 0., 0., 0., 0., 0., 0., 0., 0., 0. ]
      - [ 0., 0., 0., 0., 0., 0., 0., 0., 2.70291406e+03, 2.47492767e+02,
          1.30384045e+01, 6.37276428e+02, 508., 0., 0., 0., 0., 0., 0.,
          0., 0., 0., 0., 0., 0., 0., 0., 0., 0., 0., 0., 0., 0., 0., 0.,
          0., 0., 0., 0., 0., 0., 0., 0., 0., 0., 0., 0., 0., 0., 0., 0.,
          0., 0., 0., 0., 0., 0., 0., 0., 0., 0., 0., 0., 0. ]
      - [ 38., 0., 0., 0., 0., 0., 0., 0., 2.98893799e+03,
          2.82842708e+00, 2.84700256e+02, 1.62640701e+02, 8.81785706e+02,
          0., 2.09665268e+02, 4.27551155e+01, 0., 0., 0., 0., 0., 0., 0.,
          0., 0., 0., 0., 0., 0., 0., 0., 0., 0., 0., 0., 0., 0., 0., 0.,
          0., 0., 0., 0., 0., 0., 0., 0., 0., 0., 0., 0., 0., 0., 0., 0.,
          0., 0., 0., 0., 0., 0., 0., 0., 0. ]
      - [ 20., 0., 0., 0., 0., 0., 0., 0., 3.41201392e+03,
          2.82842708e+00, 3.48256287e+02, 1.95494247e+02, 1.03243958e+03,
          3.74432907e+01, 6.43381348e+01, 7.34574280e+01, 0., 0., 0., 0.,
          0., 0., 0., 0., 0., 0., 0., 0., 0., 0., 0., 0., 0., 0., 0., 0.,
          0., 0., 0., 0., 0., 0., 0., 0., 0., 0., 0., 0., 0., 0., 0., 0.,
          0., 0., 0., 0., 0., 0., 0., 0., 0., 0., 0., 0. ]
      - [ 1.50107849e+02, 7.27487335e+01, 0., 0., 72., 0., 0.,
          4.34108008e+03, 1.18566187e+03, 1.62634567e+02, 4.75209442e+02,
          3.58611206e+02, 1.75083960e+03, 0., 0., 0., 0., 0., 0., 0., 0.,
          0., 0., 0., 0., 0., 0., 0., 0., 0., 0., 0., 0., 0., 0., 0., 0.,
          0., 0., 0., 0., 0., 0., 0., 0., 0., 0., 0., 0., 0., 0., 0., 0.,
          0., 0., 0., 0., 0., 0., 0., 0., 0., 0., 0. ]
      - [ 3.94094009e+01, 2.26274166e+01, 9.66974258e+01, 0., 108., 0.,
          0., 4.68285400e+03, 1.26012244e+03, 1.79605133e+02,
          5.20438293e+02, 3.89594666e+02, 1.93237024e+03, 0., 0., 0., 0.,
          0., 0., 0., 0., 0., 0., 0., 0., 0., 0., 0., 0., 0., 0., 0., 0.,
          0., 0., 0., 0., 0., 0., 0., 0., 0., 0., 0., 0., 0., 0., 0., 0.,
          0., 0., 0., 0., 0., 0., 0., 0., 0., 0., 0., 0., 0., 0., 0. ]
      - [ 0., 0., 0., 7.12021027e+01, 206., 0., 0., 4.77273682e+03,
          1.27634485e+03, 7.18427917e+02, 0., 4.02874664e+02,
          2.02900488e+03, 0., 0., 0., 0., 0., 0., 0., 0., 0., 0., 0., 0.,
          0., 0., 0., 0., 0., 0., 0., 0., 0., 0., 0., 0., 0., 0., 0., 0.,
          0., 0., 0., 0., 0., 0., 0., 0., 0., 0., 0., 0., 0., 0., 0., 0.,
          0., 0., 0., 0., 0., 0., 0. ]
      - [ 0., 0., 0., 0., 2.83903961e+02, 0., 1.86010761e+01,
          4.59185986e+03, 1.22873877e+03, 6.90143921e+02, 0.,
          1.36849658e+03, 994., 0., 0., 0., 0., 0., 0., 0., 0., 0., 0.,
          0., 0., 0., 0., 0., 0., 0., 0., 0., 0., 0., 0., 0., 0., 0., 0.,
          0., 0., 0., 0., 0., 0., 0., 0., 0., 0., 0., 0., 0., 0., 0., 0.,
          0., 0., 0., 0., 0., 0., 0., 0., 0. ]
      - [ 4., 1.01289902e+01, 0., 0., 8., 0., 0., 1.16017242e+02,
          6.42442627e+02, 2.12132034e+01, 6.22414665e+01, 4.61735840e+01,
          2.40204376e+02, 0., 0., 0., 0., 0., 0., 0., 0., 0., 0., 0., 0.,
          0., 0., 0., 0., 0., 0., 0., 0., 0., 0., 0., 0., 0., 0., 0., 0.,
          0., 0., 0., 0., 0., 0., 0., 0., 0., 0., 0., 0., 0., 0., 0., 0.,
          0., 0., 0., 0., 0., 0., 0. ]
      - [ 0., 0., 0., 0., 5.50990181e+01, 0., 0., 6.55661560e+02,
          1.74920990e+02, 1.01823380e+02, 0., 2.01955627e+02, 146., 0.,
          0., 0., 0., 0., 0., 0., 0., 0., 0., 0., 0., 0., 0., 0., 0., 0.,
          0., 0., 0., 0., 0., 0., 0., 0., 0., 0., 0., 0., 0., 0., 0., 0.,
          0., 0., 0., 0., 0., 0., 0., 0., 0., 0., 0., 0., 0., 0., 0., 0.,
          0., 0. ]
      - [ 5.11547623e+01, 1.08469879e+02, 0., 0., 58., 0., 0.,
          1.18846362e+03, 3.16578857e+02, 5.09116898e+01, 1.38657852e+02,
          1.08811768e+02, 4.95941528e+02, 0., 0., 0., 0., 0., 0., 0., 0.,
          0., 0., 0., 0., 0., 0., 0., 0., 0., 0., 0., 0., 0., 0., 0., 0.,
          0., 0., 0., 0., 0., 0., 0., 0., 0., 0., 0., 0., 0., 0., 0., 0.,
          0., 0., 0., 0., 0., 0., 0., 0., 0., 0., 0. ]
      - [ 20., 1.50521713e+02, 0., 0., 80., 0., 0., 1.89282886e+03,
          5.03400116e+02, 7.77817459e+01, 2.19207657e+02, 1.70141113e+02,
          7.99223267e+02, 0., 0., 0., 0., 0., 0., 0., 0., 0., 0., 0., 0.,
          0., 0., 0., 0., 0., 0., 0., 0., 0., 0., 0., 0., 0., 0., 0., 0.,
          0., 0., 0., 0., 0., 0., 0., 0., 0., 0., 0., 0., 0., 0., 0., 0.,
          0., 0., 0., 0., 0., 0., 0. ]
      - [ 20., 1.35935638e+02, 3.28024406e+01, 0., 114., 0., 0.,
          2.53695654e+03, 6.78125000e+02, 4.01636658e+02, 0.,
          2.32124969e+02, 1.09490442e+03, 0., 0., 0., 0., 0., 0., 0., 0.,
          0., 0., 0., 0., 0., 0., 0., 0., 0., 0., 0., 0., 0., 0., 0., 0.,
          0., 0., 0., 0., 0., 0., 0., 0., 0., 0., 0., 0., 0., 0., 0., 0.,
          0., 0., 0., 0., 0., 0., 0., 0., 0., 0., 0. ]
      - [ 20., 0., 1.70701111e+02, 0., 138., 0., 0., 2.85921680e+03,
          7.59421875e+02, 4.52560272e+02, 0., 2.59942291e+02,
          1.25040491e+03, 0., 0., 0., 0., 0., 0., 0., 0., 0., 0., 0., 0.,
          0., 0., 0., 0., 0., 0., 0., 0., 0., 0., 0., 0., 0., 0., 0., 0.,
          0., 0., 0., 0., 0., 0., 0., 0., 0., 0., 0., 0., 0., 0., 0., 0.,
          0., 0., 0., 0., 0., 0., 0. ]
      - [ 0., 0., 0., 0., 98., 9.56132965e+01, 2.26274166e+01,
          2.75404053e+03, 7.52545959e+02, 4.24314575e+02, 0.,
          8.48828308e+02, 614., 0., 0., 0., 0., 0., 0., 0., 0., 0., 0.,
          0., 0., 0., 0., 0., 0., 0., 0., 0., 0., 0., 0., 0., 0., 0., 0.,
          0., 0., 0., 0., 0., 0., 0., 0., 0., 0., 0., 0., 0., 0., 0., 0.,
          0., 0., 0., 0., 0., 0., 0., 0., 0. ]
      - [ 0., 0., 0., 0., 1.21210007e+02, 1.30384045e+01, 0.,
          2.70599146e+03, 7.37157715e+02, 4.03064148e+02, 0.,
          8.01754272e+02, 578., 0., 0., 0., 0., 0., 0., 0., 0., 0., 0.,
          0., 0., 0., 0., 0., 0., 0., 0., 0., 0., 0., 0., 0., 0., 0., 0.,
          0., 0., 0., 0., 0., 0., 0., 0., 0., 0., 0., 0., 0., 0., 0., 0.,
          0., 0., 0., 0., 0., 0., 0., 0., 0. ]
      - [ 0., 0., 0., 0., 2., 0., 0., 2.10237961e+01, 3.02700513e+03,
          3.22506073e+02, 0., 6.46699036e+02, 482., 0., 0., 0., 0., 0.,
          0., 0., 0., 0., 0., 0., 0., 0., 0., 0., 0., 0., 0., 0., 0., 0.,
          0., 0., 0., 0., 0., 0., 0., 0., 0., 0., 0., 0., 0., 0., 0., 0.,
          0., 0., 0., 0., 0., 0., 0., 0., 0., 0., 0., 0., 0., 0. ]
      - [ 16., 0., 0., 8.20397644e+01, 3.32025635e+02, 0., 0.,
          2.55181226e+03, 6.56353882e+02, 4.31487732e+02, 0.,
          8.59193970e+02, 610., 0., 0., 0., 0., 0., 0., 0., 0., 0., 0.,
          0., 0., 0., 0., 0., 0., 0., 0., 0., 0., 0., 0., 0., 0., 0., 0.,
          0., 0., 0., 0., 0., 0., 0., 0., 0., 0., 0., 0., 0., 0., 0., 0.,
          0., 0., 0., 0., 0., 0., 0., 0., 0. ]
      - [ 16., 0., 1.62907364e+02, 0., 146., 0., 0., 2.90969971e+03,
          7.73746094e+02, 4.63873688e+02, 0., 2.66266785e+02,
          1.28825183e+03, 0., 0., 0., 0., 0., 0., 0., 0., 0., 0., 0., 0.,
          0., 0., 0., 0., 0., 0., 0., 0., 0., 0., 0., 0., 0., 0., 0., 0.,
          0., 0., 0., 0., 0., 0., 0., 0., 0., 0., 0., 0., 0., 0., 0., 0.,
          0., 0., 0., 0., 0., 0., 0. ]
      - [ 10., 0., 4.48058548e+01, 4.31538353e+01, 1.24110771e+02, 0.,
          0., 3.16592578e+03, 8.43104553e+02, 4.75220642e+02, 0.,
          9.42194092e+02, 676., 0., 0., 0., 0., 0., 0., 0., 0., 0., 0.,
          0., 0., 0., 0., 0., 0., 0., 0., 0., 0., 0., 0., 0., 0., 0., 0.,
          0., 0., 0., 0., 0., 0., 0., 0., 0., 0., 0., 0., 0., 0., 0., 0.,
          0., 0., 0., 0., 0., 0., 0., 0., 0. ]
      - [ 20., 0., 0., 0., 2., 0., 0., 0., 5.29102295e+03,
          5.64271240e+02, 0., 3.14963501e+02, 1.64602502e+03,
          6.42645187e+01, 1.58113880e+01, 6.32455540e+00, 0., 0., 0., 0.,
          0., 0., 0., 0., 0., 0., 0., 0., 0., 0., 0., 0., 0., 0., 0., 0.,
          0., 0., 0., 0., 0., 0., 0., 0., 0., 0., 0., 0., 0., 0., 0., 0.,
          0., 0., 0., 0., 0., 0., 0., 0., 0., 0., 0., 0. ]
      - [ 20., 0., 0., 0., 0., 0., 0., 0., 5.76209814e+03,
          1.45664001e+02, 4.44119354e+02, 3.24450317e+02, 1.76808105e+03,
